{"learner":{"attributes":{"scikit_learn":"{\"_estimator_type\": \"classifier\"}"},"feature_names":[],"feature_types":[],"gradient_booster":{"model":{"gbtree_model_param":{"num_parallel_tree":"1","num_trees":"100"},"iteration_indptr":[0,1,2,3,4,5,6,7,8,9,10,11,12,13,14,15,16,17,18,19,20,21,22,23,24,25,26,27,28,29,30,31,32,33,34,35,36,37,38,39,40,41,42,43,44,45,46,47,48,49,50,51,52,53,54,55,56,57,58,59,60,61,62,63,64,65,66,67,68,69,70,71,72,73,74,75,76,77,78,79,80,81,82,83,84,85,86,87,88,89,90,91,92,93,94,95,96,97,98,99,100],"tree_info":[0,0,0,0,0,0,0,0,0,0,0,0,0,0,0,0,0,0,0,0,0,0,0,0,0,0,0,0,0,0,0,0,0,0,0,0,0,0,0,0,0,0,0,0,0,0,0,0,0,0,0,0,0,0,0,0,0,0,0,0,0,0,0,0,0,0,0,0,0,0,0,0,0,0,0,0,0,0,0,0,0,0,0,0,0,0,0,0,0,0,0,0,0,0,0,0,0,0,0,0],"trees":[{"base_weights":[-7.694104E-8,-2.3780687E0,7.915499E-1,-5.194109E-1,-9.417914E-1,-9.29857E-2,1.2075642E0,2.5859925E-1,-6.420652E-1,-1.8215908E0,7.4924994E-1,3.7638122E-1,6.770074E-2,-7.425246E-2,-7.282081E-1,3.3559585E-1,-2.1620566E-1],"categories":[],"categories_nodes":[],"categories_segments":[],"categories_sizes":[],"default_left":[0,0,0,0,0,0,0,0,0,0,0,0,0,0,0,0,0],"id":0,"left_children":[1,3,5,7,-1,9,11,-1,-1,13,15,-1,-1,-1,-1,-1,-1],"loss_changes":[7.18772E1,1.1861477E1,1.0654444E1,1.0731421E1,0E0,1.605849E1,6.2013817E-1,0E0,0E0,2.8298883E0,4.875793E0,0E0,0E0,0E0,0E0,0E0,0E0],"parents":[2147483647,0,0,1,1,2,2,3,3,5,5,6,6,9,9,10,10],"right_children":[2,4,6,8,-1,10,12,-1,-1,14,16,-1,-1,-1,-1,-1,-1],"split_conditions":[-8.0579925E-1,1.1002837E-2,-4.2594233E-1,-3.9386153E-1,-9.417914E-1,-8.951366E-1,1.144162E0,2.5859925E-1,-6.420652E-1,-1.0016675E0,-5.849806E-1,3.7638122E-1,6.770074E-2,-7.425246E-2,-7.282081E-1,3.3559585E-1,-2.1620566E-1],"split_indices":[21,1,11,16,0,0,0,0,0,0,10,0,0,0,0,0,0],"split_type":[0,0,0,0,0,0,0,0,0,0,0,0,0,0,0,0,0],"sum_hessian":[3.6184612E1,8.535857E0,2.7648756E1,2.968994E0,5.5668635E0,9.092544E0,1.8556211E1,1.8556212E0,1.1133727E0,2.5978696E0,6.494674E0,1.7442839E1,1.1133727E0,1.1133727E0,1.484497E0,5.3813014E0,1.1133727E0],"tree_param":{"num_deleted":"0","num_feature":"22","num_nodes":"17","size_leaf_vector":"1"}},{"base_weights":[1.7086899E-2,-1.3967035E0,6.6761404E-1,-1.6008139E-1,-1.6738316E0,-1.0162106E-1,1.0916555E0,-2.7528584E-1,2.1381116E-1,-9.0221596E-1,-5.7526946E-1,-1.2771012E0,6.314892E-1,3.428468E-1,5.8247257E-2,9.082232E-2,-4.3767998E-1,-5.1718545E-1,-9.014714E-2,3.0646944E-1,-2.3065794E-1],"categories":[],"categories_nodes":[],"categories_segments":[],"categories_sizes":[],"default_left":[0,0,0,0,0,0,0,0,0,0,0,0,0,0,0,0,0,0,0,0,0],"id":1,"left_children":[1,3,5,7,9,11,13,-1,-1,15,-1,17,19,-1,-1,-1,-1,-1,-1,-1,-1],"loss_changes":[3.3455627E1,3.6618786E0,8.231473E0,2.7730927E0,1.1842728E-2,9.218602E0,5.1901245E-1,0E0,0E0,3.2000427E0,0E0,1.2626534E0,4.4349914E0,0E0,0E0,0E0,0E0,0E0,0E0,0E0,0E0],"parents":[2147483647,0,0,1,1,2,2,3,3,4,4,5,5,6,6,9,9,11,11,12,12],"right_children":[2,4,6,8,10,12,14,-1,-1,16,-1,18,20,-1,-1,-1,-1,-1,-1,-1,-1],"split_conditions":[-8.0579925E-1,-1.5475165E0,-4.2594233E-1,-1.2764494E0,-7.844455E-1,-8.951366E-1,1.144162E0,-2.7528584E-1,2.1381116E-1,4.8696075E-2,-5.7526946E-1,-7.370479E-1,-5.8399314E-1,3.428468E-1,5.8247257E-2,9.082232E-2,-4.3767998E-1,-5.1718545E-1,-9.014714E-2,3.0646944E-1,-2.3065794E-1],"split_indices":[21,16,11,18,10,0,0,0,0,0,0,10,10,0,0,0,0,0,0,0,0],"split_type":[0,0,0,0,0,0,0,0,0,0,0,0,0,0,0,0,0,0,0,0,0],"sum_hessian":[3.4362457E1,1.0467156E1,2.3895302E1,2.2050884E0,8.262068E0,8.761605E0,1.5133696E1,1.1529825E0,1.0521059E0,3.1119256E0,5.1501427E0,3.0804052E0,5.6812E0,1.4058845E1,1.0748508E0,1.1275858E0,1.9843397E0,1.5883933E0,1.4920118E0,4.6550117E0,1.0261886E0],"tree_param":{"num_deleted":"0","num_feature":"22","num_nodes":"21","size_leaf_vector":"1"}},{"base_weights":[1.6077643E-3,-9.849337E-1,6.519497E-1,-4.1942772E-1,-4.4064078E-1,-2.4584961E-1,9.954867E-1,6.9127864E-1,-1.1838356E0,-9.5090425E-1,5.573368E-1,3.5182217E-1,3.2700256E-1,2.533853E-1,5.1746715E-2,-4.3728158E-1,-3.487393E-2,-3.5586742E-1,-5.060136E-2,2.1132879E-1,2.759288E-2,2.0464031E-1,-5.135475E-2],"categories":[],"categories_nodes":[],"categories_segments":[],"categories_sizes":[],"default_left":[0,0,0,0,0,0,0,0,0,0,0,0,0,0,0,0,0,0,0,0,0,0,0],"id":2,"left_children":[1,3,5,7,-1,9,11,13,15,17,19,21,-1,-1,-1,-1,-1,-1,-1,-1,-1,-1,-1],"loss_changes":[2.0926365E1,2.9300137E0,6.307274E0,7.080201E0,0E0,4.0646334E0,4.9349403E-1,1.43713E-1,1.2151542E0,4.797957E-1,1.7809439E-1,6.907169E-1,0E0,0E0,0E0,0E0,0E0,0E0,0E0,0E0,0E0,0E0,0E0],"parents":[2147483647,0,0,1,1,2,2,3,3,5,5,6,6,7,7,8,8,9,9,10,10,11,11],"right_children":[2,4,6,8,-1,10,12,14,16,18,20,22,-1,-1,-1,-1,-1,-1,-1,-1,-1,-1,-1],"split_conditions":[-5.771429E-1,3.711848E-1,-3.0817223E-1,1.0772873E-1,-4.4064078E-1,-4.6945524E-1,-6.7102456E-1,-1.0103873E0,-4.0860254E-1,-3.3780167E-1,-9.617916E-2,-6.490915E-1,3.2700256E-1,2.533853E-1,5.1746715E-2,-4.3728158E-1,-3.487393E-2,-3.5586742E-1,-5.060136E-2,2.1132879E-1,2.759288E-2,2.0464031E-1,-5.135475E-2],"split_indices":[18,1,19,17,0,9,20,21,20,16,0,1,0,0,0,0,0,0,0,0,0,0,0],"split_type":[0,0,0,0,0,0,0,0,0,0,0,0,0,0,0,0,0,0,0,0,0,0,0],"sum_hessian":[3.0615612E1,1.1959328E1,1.8656284E1,6.375265E0,5.584062E0,5.2417793E0,1.3414505E1,2.6379364E0,3.7373288E0,2.693474E0,2.5483053E0,2.3223236E0,1.1092181E1,1.5513487E0,1.0865878E0,2.6837828E0,1.053546E0,1.6735561E0,1.0199181E0,1.5459343E0,1.0023711E0,1.2368869E0,1.0854367E0],"tree_param":{"num_deleted":"0","num_feature":"22","num_nodes":"23","size_leaf_vector":"1"}},{"base_weights":[2.7429932E-3,-5.920612E-1,7.9712725E-1,-1.0744148E-1,-1.1705285E0,-4.4364836E-2,3.075906E-1,-9.4849426E-1,7.825205E-1,-4.0109232E-1,-5.9036594E-2,-2.4153824E-1,1.9892164E-1,-1.189658E0,9.860482E-3,2.819204E-1,1.4350185E-2,-1.1336628E-1,-4.0556934E-1],"categories":[],"categories_nodes":[],"categories_segments":[],"categories_sizes":[],"default_left":[0,0,0,0,0,0,0,0,0,0,0,0,0,0,0,0,0,0,0],"id":3,"left_children":[1,3,5,7,9,11,-1,13,15,-1,-1,-1,-1,17,-1,-1,-1,-1,-1],"loss_changes":[1.372011E1,4.5297923E0,2.4323745E0,8.330255E0,9.47505E-1,2.4768798E0,0E0,1.3796129E0,5.872574E-1,0E0,0E0,0E0,0E0,9.148693E-2,0E0,0E0,0E0,0E0,0E0],"parents":[2147483647,0,0,1,1,2,2,3,3,4,4,5,5,7,7,8,8,13,13],"right_children":[2,4,6,8,10,12,-1,14,16,-1,-1,-1,-1,18,-1,-1,-1,-1,-1],"split_conditions":[-2.3992805E-1,8.3304733E-1,-2.3264779E-1,-4.3287298E-1,-5.745452E-1,-4.1838107E-1,3.075906E-1,-4.4170207E-1,2.750771E-1,-4.0109232E-1,-5.9036594E-2,-2.4153824E-1,1.9892164E-1,-5.977355E-1,9.860482E-3,2.819204E-1,1.4350185E-2,-1.1336628E-1,-4.0556934E-1],"split_indices":[21,0,19,0,19,8,0,14,20,0,0,0,0,3,0,0,0,0,0],"split_type":[0,0,0,0,0,0,0,0,0,0,0,0,0,0,0,0,0,0,0],"sum_hessian":[2.7038254E1,1.5607016E1,1.1431238E1,9.137593E0,6.4694223E0,2.61028E0,8.820959E0,4.664072E0,4.4735208E0,5.2064323E0,1.2629904E0,1.1911991E0,1.4190809E0,3.5736244E0,1.0904477E0,3.4550788E0,1.0184419E0,1.1497937E0,2.4238307E0],"tree_param":{"num_deleted":"0","num_feature":"22","num_nodes":"19","size_leaf_vector":"1"}},{"base_weights":[-4.628657E-3,-4.1635725E-1,2.6866674E-1,-9.47712E-1,5.6376345E-2,-2.5837012E-3,-3.6949763E-1,-4.7347593E-1,6.619303E-1,1.09846994E-1,-7.297452E-1,2.5177133E-1,4.47522E-2,-3.216719E-1,2.7312709E-2],"categories":[],"categories_nodes":[],"categories_segments":[],"categories_sizes":[],"default_left":[0,0,0,0,0,0,0,0,0,0,0,0,0,0,0],"id":4,"left_children":[1,3,-1,5,7,-1,-1,9,11,-1,13,-1,-1,-1,-1],"loss_changes":[9.435813E0,4.439478E0,0E0,2.1964898E0,3.5810292E0,0E0,0E0,1.5613668E0,3.4480143E-1,0E0,1.4869502E0,0E0,0E0,0E0,0E0],"parents":[2147483647,0,0,1,1,3,3,4,4,7,7,8,8,10,10],"right_children":[2,4,-1,6,8,-1,-1,10,12,-1,14,-1,-1,-1,-1],"split_conditions":[-2.6749253E-1,-5.745452E-1,2.6866674E-1,1.3599908E-2,-4.0860254E-1,-2.5837012E-3,-3.6949763E-1,-5.9980345E-1,-5.918928E-1,1.09846994E-1,-1.9705217E-1,2.5177133E-1,4.47522E-2,-3.216719E-1,2.7312709E-2],"split_indices":[12,19,0,1,20,0,0,3,10,0,18,0,0,0,0],"split_type":[0,0,0,0,0,0,0,0,0,0,0,0,0,0,0],"sum_hessian":[2.3452692E1,1.6461134E1,6.9915586E0,7.2770014E0,9.184133E0,1.9286592E0,5.3483424E0,5.0145626E0,4.16957E0,1.0723506E0,3.942212E0,2.6251082E0,1.5444615E0,2.5653853E0,1.3768268E0],"tree_param":{"num_deleted":"0","num_feature":"22","num_nodes":"15","size_leaf_vector":"1"}},{"base_weights":[-8.38409E-4,-3.7263128E-1,8.3295035E-1,-6.447782E-2,-2.9911298E-1,2.712682E-1,6.307637E-2,-6.075554E-1,4.0113926E-1,-8.979613E-1,8.3542794E-2,7.093605E-1,-1.6955088E-1,-6.2170483E-2,-3.2611114E-1,2.719283E-1,-8.545006E-3],"categories":[],"categories_nodes":[],"categories_segments":[],"categories_sizes":[],"default_left":[0,0,0,0,0,0,0,0,0,0,0,0,0,0,0,0,0],"id":5,"left_children":[1,3,5,7,-1,-1,-1,9,11,13,-1,15,-1,-1,-1,-1,-1],"loss_changes":[6.959602E0,2.92303E0,1.17191315E-1,3.1426718E0,0E0,0E0,0E0,1.7140663E0,2.4186664E0,3.6528492E-1,0E0,8.371484E-1,0E0,0E0,0E0,0E0,0E0],"parents":[2147483647,0,0,1,1,2,2,3,3,7,7,8,8,9,9,11,11],"right_children":[2,4,6,8,-1,-1,-1,10,12,14,-1,16,-1,-1,-1,-1,-1],"split_conditions":[9.116879E-2,3.9442694E-1,1.440701E0,-4.3287298E-1,-2.9911298E-1,2.712682E-1,6.307637E-2,-5.156521E-1,1.68848E0,-5.873625E-1,8.3542794E-2,-3.1482288E-1,-1.6955088E-1,-6.2170483E-2,-3.2611114E-1,2.719283E-1,-8.545006E-3],"split_indices":[18,1,16,0,0,0,0,5,2,6,0,6,0,0,0,0,0],"split_type":[0,0,0,0,0,0,0,0,0,0,0,0,0,0,0,0,0],"sum_hessian":[2.044932E1,1.4525413E1,5.923907E0,1.0464393E1,4.06102E0,4.9097905E0,1.0141164E0,4.6896863E0,5.7747064E0,3.5218873E0,1.1677991E0,4.5798044E0,1.1949022E0,1.2073333E0,2.314554E0,3.43412E0,1.1456844E0],"tree_param":{"num_deleted":"0","num_feature":"22","num_nodes":"17","size_leaf_vector":"1"}},{"base_weights":[-3.4267977E-3,-6.820338E-1,3.7942764E-1,2.4705807E-2,-2.580977E-1,-8.216361E-2,7.940212E-1,-5.823995E-1,3.7526703E-1,3.9985873E-2,2.6613E-1,4.9036786E-2,-2.8586435E-1,2.3108895E-1,-1.2849432E-1],"categories":[],"categories_nodes":[],"categories_segments":[],"categories_sizes":[],"default_left":[0,0,0,0,0,0,0,0,0,0,0,0,0,0,0],"id":6,"left_children":[1,3,5,-1,-1,7,9,11,13,-1,-1,-1,-1,-1,-1],"loss_changes":[5.1773977E0,1.0501692E0,2.504453E0,0E0,0E0,1.8059762E0,3.0049038E-1,1.1796731E0,1.6732793E0,0E0,0E0,0E0,0E0,0E0,0E0],"parents":[2147483647,0,0,1,1,2,2,5,5,6,6,7,7,8,8],"right_children":[2,4,6,-1,-1,8,10,12,14,-1,-1,-1,-1,-1,-1],"split_conditions":[-8.0579925E-1,-1.5475165E0,-4.2594233E-1,2.4705807E-2,-2.580977E-1,-8.951366E-1,-4.8764515E-1,-1.0016675E0,-5.209017E-1,3.9985873E-2,2.6613E-1,4.9036786E-2,-2.8586435E-1,2.3108895E-1,-1.2849432E-1],"split_indices":[21,16,11,0,0,0,16,0,9,0,0,0,0,0,0],"split_type":[0,0,0,0,0,0,0,0,0,0,0,0,0,0,0],"sum_hessian":[1.7931753E1,6.185879E0,1.1745874E1,1.2717286E0,4.9141507E0,5.9373245E0,5.8085494E0,2.7054777E0,3.2318468E0,1.017516E0,4.7910333E0,1.0833247E0,1.622153E0,2.194488E0,1.0373589E0],"tree_param":{"num_deleted":"0","num_feature":"22","num_nodes":"15","size_leaf_vector":"1"}},{"base_weights":[-9.506158E-4,-5.958999E-1,3.563583E-1,1.9681986E-1,-3.0069727E-1,-1.5148482E-1,7.312773E-1,-8.715357E-2,1.7025834E-1,-4.2767447E-1,1.4500262E-1,6.013324E-2,2.557562E-1,7.7549934E-2,-2.2191821E-1],"categories":[],"categories_nodes":[],"categories_segments":[],"categories_sizes":[],"default_left":[0,0,0,0,0,0,0,0,0,0,0,0,0,0,0],"id":7,"left_children":[1,3,5,7,-1,9,11,-1,-1,13,-1,-1,-1,-1,-1],"loss_changes":[3.7913122E0,2.3531122E0,2.2326674E0,7.2559345E-1,0E0,1.1818323E0,2.5278854E-1,0E0,0E0,1.1346481E0,0E0,0E0,0E0,0E0,0E0],"parents":[2147483647,0,0,1,1,2,2,3,3,5,5,6,6,9,9],"right_children":[2,4,6,8,-1,10,12,-1,-1,14,-1,-1,-1,-1,-1],"split_conditions":[-5.745452E-1,9.265168E-2,-4.0860254E-1,-8.292996E-1,-3.0069727E-1,-2.2850502E-1,-6.1012226E-1,-8.715357E-2,1.7025834E-1,-5.9153163E-1,1.4500262E-1,6.013324E-2,2.557562E-1,7.7549934E-2,-2.2191821E-1],"split_indices":[19,1,20,0,0,5,21,0,0,3,0,0,0,0,0],"split_type":[0,0,0,0,0,0,0,0,0,0,0,0,0,0,0],"sum_hessian":[1.5835767E1,5.6913867E0,1.0144381E1,2.103769E0,3.5876176E0,4.5615406E0,5.58284E0,1.0023777E0,1.1013913E0,3.4060204E0,1.15552E0,1.5313684E0,4.051471E0,1.1183943E0,2.287626E0],"tree_param":{"num_deleted":"0","num_feature":"22","num_nodes":"15","size_leaf_vector":"1"}},{"base_weights":[7.129165E-3,-2.7367982E-1,6.48482E-1,-6.899497E-1,4.2716518E-2,1.3525336E-2,2.3867746E-1,-2.62486E-1,-1.583035E-2,-4.941398E-1,5.4431623E-1,-1.0793694E-2,-2.1270506E-1,2.1064518E-1,5.333297E-2],"categories":[],"categories_nodes":[],"categories_segments":[],"categories_sizes":[],"default_left":[0,0,0,0,0,0,0,0,0,0,0,0,0,0,0],"id":8,"left_children":[1,3,5,7,9,-1,-1,-1,-1,11,13,-1,-1,-1,-1],"loss_changes":[2.8643053E0,1.4886489E0,3.9373016E-1,5.246923E-1,2.2176173E0,0E0,0E0,0E0,0E0,3.7020117E-1,1.191293E-1,0E0,0E0,0E0,0E0],"parents":[2147483647,0,0,1,1,2,2,3,3,4,4,9,9,10,10],"right_children":[2,4,6,8,10,-1,-1,-1,-1,12,14,-1,-1,-1,-1],"split_conditions":[6.1865184E-2,-6.1545086E-1,-9.822677E-1,-4.1992626E-1,-4.955286E-1,1.3525336E-2,2.3867746E-1,-2.62486E-1,-1.583035E-2,-5.2926326E-1,1.289449E-1,-1.0793694E-2,-2.1270506E-1,2.1064518E-1,5.333297E-2],"split_indices":[18,17,17,19,14,0,0,0,0,14,17,0,0,0,0],"split_type":[0,0,0,0,0,0,0,0,0,0,0,0,0,0,0],"sum_hessian":[1.3918732E1,1.0079024E1,3.8397079E0,3.8426955E0,6.2363286E0,1.0087196E0,2.8309884E0,2.688839E0,1.1538566E0,3.019483E0,3.2168455E0,1.3367356E0,1.6827475E0,1.6085665E0,1.6082789E0],"tree_param":{"num_deleted":"0","num_feature":"22","num_nodes":"15","size_leaf_vector":"1"}},{"base_weights":[9.055915E-3,-2.2083485E-1,2.000718E-1,5.7271533E-2,-6.520583E-1,-3.380512E-1,2.0985533E-1,-2.4928805E-1,-2.3376422E-2,-6.166566E-1,9.3672246E-2,-2.3705378E-1,-3.499082E-2],"categories":[],"categories_nodes":[],"categories_segments":[],"categories_sizes":[],"default_left":[0,0,0,0,0,0,0,0,0,0,0,0,0],"id":9,"left_children":[1,3,-1,5,7,9,-1,-1,-1,11,-1,-1,-1],"loss_changes":[2.2075436E0,1.3381174E0,0E0,2.1440227E0,3.8034177E-1,1.1572598E0,0E0,0E0,0E0,2.6043582E-1,0E0,0E0,0E0],"parents":[2147483647,0,0,1,1,3,3,4,4,5,5,9,9],"right_children":[2,4,-1,6,8,10,-1,-1,-1,12,-1,-1,-1],"split_conditions":[-2.6749253E-1,8.3304733E-1,2.000718E-1,-4.3287298E-1,-5.745452E-1,-4.7849193E-1,2.0985533E-1,-2.4928805E-1,-2.3376422E-2,8.309225E-1,9.3672246E-2,-2.3705378E-1,-3.499082E-2],"split_indices":[12,0,0,0,19,5,0,0,0,15,0,0,0],"split_type":[0,0,0,0,0,0,0,0,0,0,0,0,0],"sum_hessian":[1.2623077E1,9.846463E0,2.7766144E0,6.513159E0,3.3333044E0,4.3247695E0,2.188389E0,2.2003515E0,1.1329532E0,3.0638456E0,1.2609239E0,1.843723E0,1.2201226E0],"tree_param":{"num_deleted":"0","num_feature":"22","num_nodes":"13","size_leaf_vector":"1"}},{"base_weights":[4.77188E-3,-2.989495E-1,4.471139E-1,2.2715363E-1,-2.4087901E-1,-5.0824877E-2,2.3071541E-1,-9.839242E-2,2.136321E-1],"categories":[],"categories_nodes":[],"categories_segments":[],"categories_sizes":[],"default_left":[0,0,0,0,0,0,0,0,0],"id":10,"left_children":[1,3,5,7,-1,-1,-1,-1,-1],"loss_changes":[1.7823899E0,2.2705097E0,1.2014312E0,1.4807013E0,0E0,0E0,0E0,0E0,0E0],"parents":[2147483647,0,0,1,1,2,2,3,3],"right_children":[2,4,6,8,-1,-1,-1,-1,-1],"split_conditions":[-2.235363E-1,1.2925175E-1,-4.76111E-1,-8.3059084E-1,-2.4087901E-1,-5.0824877E-2,2.3071541E-1,-9.839242E-2,2.136321E-1],"split_indices":[19,1,21,20,0,0,0,0,0],"split_type":[0,0,0,0,0,0,0,0,0],"sum_hessian":[1.1271982E1,6.875373E0,4.3966093E0,3.6325989E0,3.242774E0,1.67076E0,2.7258494E0,1.8446817E0,1.7879173E0],"tree_param":{"num_deleted":"0","num_feature":"22","num_nodes":"9","size_leaf_vector":"1"}},{"base_weights":[1.2570638E-2,-4.1516182E-1,2.5809026E-1,4.242004E-2,-2.2531354E-1,-1.2826543E-1,5.916581E-1,-3.4181532E-1,6.538224E-2,5.9317023E-2,2.0742215E-1,8.346012E-3,-1.6491887E-1],"categories":[],"categories_nodes":[],"categories_segments":[],"categories_sizes":[],"default_left":[0,0,0,0,0,0,0,0,0,0,0,0,0],"id":11,"left_children":[1,3,5,-1,-1,7,9,11,-1,-1,-1,-1,-1],"loss_changes":[1.2666581E0,9.3056834E-1,1.0593884E0,0E0,0E0,3.9667302E-1,3.1223416E-2,2.5235158E-1,0E0,0E0,0E0,0E0,0E0],"parents":[2147483647,0,0,1,1,2,2,5,5,6,6,7,7],"right_children":[2,4,6,-1,-1,8,10,12,-1,-1,-1,-1,-1],"split_conditions":[-5.745452E-1,9.265168E-2,-4.0860254E-1,4.242004E-2,-2.2531354E-1,-6.205288E-1,-6.1012226E-1,-5.5224043E-1,6.538224E-2,5.9317023E-2,2.0742215E-1,8.346012E-3,-1.6491887E-1],"split_indices":[19,1,20,0,0,10,21,3,0,0,0,0,0],"split_type":[0,0,0,0,0,0,0,0,0,0,0,0,0],"sum_hessian":[1.0041185E1,3.4098163E0,6.631369E0,1.50125E0,1.9085662E0,3.3577373E0,3.2736318E0,2.0845873E0,1.27315E0,1.2639954E0,2.0096364E0,1.062263E0,1.0223242E0],"tree_param":{"num_deleted":"0","num_feature":"22","num_nodes":"13","size_leaf_vector":"1"}},{"base_weights":[8.650082E-3,-4.6301225E-1,2.3332658E-1,-2.074836E-1,1.1457358E-2,-2.8996885E-1,5.645537E-1,2.6731124E-2,-1.4242661E-1,2.3319086E-2,2.0264274E-1],"categories":[],"categories_nodes":[],"categories_segments":[],"categories_sizes":[],"default_left":[0,0,0,0,0,0,0,0,0,0,0],"id":12,"left_children":[1,3,5,-1,-1,7,9,-1,-1,-1,-1],"loss_changes":[1.192275E0,4.4304192E-1,1.4801689E0,0E0,0E0,2.948009E-1,2.1697855E-1,0E0,0E0,0E0,0E0],"parents":[2147483647,0,0,1,1,2,2,5,5,6,6],"right_children":[2,4,6,-1,-1,8,10,-1,-1,-1,-1],"split_conditions":[-8.62852E-1,-4.1302654E-1,-4.955286E-1,-2.074836E-1,1.1457358E-2,-5.2926326E-1,-6.7707956E-1,2.6731124E-2,-1.4242661E-1,2.3319086E-2,2.0264274E-1],"split_indices":[17,19,14,0,0,14,19,0,0,0,0],"split_type":[0,0,0,0,0,0,0,0,0,0,0],"sum_hessian":[9.231454E0,2.6362958E0,6.595158E0,1.5496122E0,1.0866835E0,2.6046748E0,3.9904835E0,1.0232902E0,1.5813847E0,1.0561104E0,2.9343731E0],"tree_param":{"num_deleted":"0","num_feature":"22","num_nodes":"11","size_leaf_vector":"1"}},{"base_weights":[-6.4438704E-4,1.4731143E-1,-1.7090967E-1,-1.715808E-1,4.6563196E-1,1.0566353E-1,-5.00757E-1,2.1353658E-1,-1.3487493E-2,-2.0573407E-1,-2.1965276E-2],"categories":[],"categories_nodes":[],"categories_segments":[],"categories_sizes":[],"default_left":[0,0,0,0,0,0,0,0,0,0,0],"id":13,"left_children":[1,3,-1,5,7,-1,9,-1,-1,-1,-1],"loss_changes":[8.9064837E-1,9.324761E-1,0E0,1.0257941E0,5.941323E-1,0E0,2.2176498E-1,0E0,0E0,0E0,0E0],"parents":[2147483647,0,0,1,1,3,3,4,4,6,6],"right_children":[2,4,-1,6,8,-1,10,-1,-1,-1,-1],"split_conditions":[1.3301915E0,-4.7849193E-1,-1.7090967E-1,-6.370267E-1,2.2299834E-1,1.0566353E-1,-8.951366E-1,2.1353658E-1,-1.3487493E-2,-2.0573407E-1,-2.1965276E-2],"split_indices":[0,5,0,3,1,0,0,0,0,0,0],"split_type":[0,0,0,0,0,0,0,0,0,0,0],"sum_hessian":[8.581637E0,7.3990045E0,1.182633E0,3.9264667E0,3.4725378E0,1.4882889E0,2.4381778E0,2.077109E0,1.3954287E0,1.2801571E0,1.1580209E0],"tree_param":{"num_deleted":"0","num_feature":"22","num_nodes":"11","size_leaf_vector":"1"}},{"base_weights":[-8.93089E-3,-1.5144238E-1,1.3868105E-1,-8.583001E-2,3.3854637E-1,-4.217444E-2,1.77157E-1,9.684838E-2,-1.1573608E-1],"categories":[],"categories_nodes":[],"categories_segments":[],"categories_sizes":[],"default_left":[0,0,0,0,0,0,0,0,0],"id":14,"left_children":[1,-1,3,-1,5,7,-1,-1,-1],"loss_changes":[7.2126913E-1,0E0,7.4555755E-1,0E0,5.673144E-1,5.240177E-1,0E0,0E0,0E0],"parents":[2147483647,0,0,2,2,4,4,5,5],"right_children":[2,-1,4,-1,6,8,-1,-1,-1],"split_conditions":[-1.1097109E0,-1.5144238E-1,-8.62852E-1,-8.583001E-2,-6.375368E-1,-4.831976E-1,1.77157E-1,9.684838E-2,-1.1573608E-1],"split_indices":[21,0,17,0,16,21,0,0,0],"split_type":[0,0,0,0,0,0,0,0,0],"sum_hessian":[7.8973403E0,1.256503E0,6.640837E0,1.9867854E0,4.654052E0,2.1851132E0,2.4689386E0,1.0889084E0,1.0962048E0],"tree_param":{"num_deleted":"0","num_feature":"22","num_nodes":"9","size_leaf_vector":"1"}},{"base_weights":[-1.426523E-2,-2.2334655E-1,3.1362906E-1,1.2324289E-1,-4.5210034E-1,-3.9788157E-2,1.8224265E-1,1.3285089E-1,-7.760671E-2,-2.5685327E-2,-1.6873784E-1],"categories":[],"categories_nodes":[],"categories_segments":[],"categories_sizes":[],"default_left":[0,0,0,0,0,0,0,0,0,0,0],"id":15,"left_children":[1,3,5,7,9,-1,-1,-1,-1,-1,-1],"loss_changes":[6.4643633E-1,5.090575E-1,5.643804E-1,4.8797414E-1,9.981942E-2,0E0,0E0,0E0,0E0,0E0,0E0],"parents":[2147483647,0,0,1,1,2,2,3,3,4,4],"right_children":[2,4,6,8,10,-1,-1,-1,-1,-1,-1],"split_conditions":[-3.257015E-1,-4.0189943E-1,-2.3264779E-1,1.0498152E0,-6.9656247E-1,-3.9788157E-2,1.8224265E-1,1.3285089E-1,-7.760671E-2,-2.5685327E-2,-1.6873784E-1],"split_indices":[21,4,19,0,10,0,0,0,0,0,0],"split_type":[0,0,0,0,0,0,0,0,0,0,0],"sum_hessian":[7.407486E0,4.7179427E0,2.6895435E0,2.0592196E0,2.6587229E0,1.2856755E0,1.403868E0,1.0342854E0,1.0249343E0,1.0263181E0,1.6324048E0],"tree_param":{"num_deleted":"0","num_feature":"22","num_nodes":"11","size_leaf_vector":"1"}},{"base_weights":[-8.358296E-3,-1.8883725E-1,1.0745638E-1,-3.7926504E-1,9.2399895E-2,-1.4273457E-3,-1.5775113E-1,-5.958518E-2,9.505115E-2],"categories":[],"categories_nodes":[],"categories_segments":[],"categories_sizes":[],"default_left":[0,0,0,0,0,0,0,0,0],"id":16,"left_children":[1,3,-1,5,7,-1,-1,-1,-1],"loss_changes":[5.923565E-1,3.5475087E-1,0E0,2.0364016E-1,2.7286878E-1,0E0,0E0,0E0,0E0],"parents":[2147483647,0,0,1,1,3,3,4,4],"right_children":[2,4,-1,6,8,-1,-1,-1,-1],"split_conditions":[-4.2594233E-1,8.4564704E-1,1.0745638E-1,-6.165383E-1,-8.596415E-1,-1.4273457E-3,-1.5775113E-1,-5.958518E-2,9.505115E-2],"split_indices":[11,15,0,12,20,0,0,0,0],"split_type":[0,0,0,0,0,0,0,0,0],"sum_hessian":[6.93177E0,4.969649E0,1.962121E0,2.7553923E0,2.2142565E0,1.065468E0,1.6899242E0,1.014215E0,1.2000415E0],"tree_param":{"num_deleted":"0","num_feature":"22","num_nodes":"9","size_leaf_vector":"1"}},{"base_weights":[-8.366644E-3,-3.28659E-1,1.8721926E-1,3.963907E-2,-1.8082255E-1,-1.3047281E-1,1.4655288E-1,-1.0877519E-1,3.8955778E-2],"categories":[],"categories_nodes":[],"categories_segments":[],"categories_sizes":[],"default_left":[0,0,0,0,0,0,0,0,0],"id":17,"left_children":[1,3,5,-1,-1,7,-1,-1,-1],"loss_changes":[5.415385E-1,4.9236628E-1,5.8007705E-1,0E0,0E0,2.5342885E-1,0E0,0E0,0E0],"parents":[2147483647,0,0,1,1,2,2,5,5],"right_children":[2,4,6,-1,-1,8,-1,-1,-1],"split_conditions":[-5.745452E-1,9.265168E-2,-4.0860254E-1,3.963907E-2,-1.8082255E-1,-4.76111E-1,1.4655288E-1,-1.0877519E-1,3.8955778E-2],"split_indices":[19,1,20,0,0,21,0,0,0],"split_type":[0,0,0,0,0,0,0,0,0],"sum_hessian":[6.662379E0,2.267966E0,4.394413E0,1.0390422E0,1.2289237E0,2.41495E0,1.9794629E0,1.068999E0,1.3459508E0],"tree_param":{"num_deleted":"0","num_feature":"22","num_nodes":"9","size_leaf_vector":"1"}},{"base_weights":[-1.576869E-2,-2.9842576E-1,1.669874E-1,5.454179E-3,-1.3644865E-1,-5.250347E-2,4.172119E-1,1.2401991E-2,1.7200723E-1],"categories":[],"categories_nodes":[],"categories_segments":[],"categories_sizes":[],"default_left":[0,0,0,0,0,0,0,0,0],"id":18,"left_children":[1,3,5,-1,-1,-1,7,-1,-1],"loss_changes":[4.234331E-1,1.6666418E-1,5.0377023E-1,0E0,0E0,0E0,1.6424292E-1,0E0,0E0],"parents":[2147483647,0,0,1,1,2,2,6,6],"right_children":[2,4,6,-1,-1,-1,8,-1,-1],"split_conditions":[-8.0579925E-1,-4.8320818E-1,-3.3780167E-1,5.454179E-3,-1.3644865E-1,-5.250347E-2,-8.0558103E-1,1.2401991E-2,1.7200723E-1],"split_indices":[21,16,16,0,0,0,17,0,0],"split_type":[0,0,0,0,0,0,0,0,0],"sum_hessian":[6.2322726E0,2.1987262E0,4.0335464E0,1.0192395E0,1.1794868E0,1.8312429E0,2.2023036E0,1.0175706E0,1.184733E0],"tree_param":{"num_deleted":"0","num_feature":"22","num_nodes":"9","size_leaf_vector":"1"}},{"base_weights":[-1.0020009E-2,-2.1244164E-1,2.2981699E-1,-1.5165967E-1,7.1368136E-2,1.722921E-1,-5.334947E-2,-4.2748652E-2,7.405313E-2],"categories":[],"categories_nodes":[],"categories_segments":[],"categories_sizes":[],"default_left":[0,0,0,0,0,0,0,0,0],"id":19,"left_children":[1,3,5,-1,7,-1,-1,-1,-1],"loss_changes":[3.872621E-1,3.937723E-1,6.1766195E-1,0E0,1.500448E-1,0E0,0E0,0E0,0E0],"parents":[2147483647,0,0,1,1,2,2,4,4],"right_children":[2,4,6,-1,8,-1,-1,-1,-1],"split_conditions":[-4.7849193E-1,-9.0881175E-1,2.2299834E-1,-1.5165967E-1,8.4564704E-1,1.722921E-1,-5.334947E-2,-4.2748652E-2,7.405313E-2],"split_indices":[5,20,1,0,15,0,0,0,0],"split_type":[0,0,0,0,0,0,0,0,0],"sum_hessian":[5.9712048E0,3.3001304E0,2.6710744E0,1.2391859E0,2.0609446E0,1.2261055E0,1.4449688E0,1.0135778E0,1.0473666E0],"tree_param":{"num_deleted":"0","num_feature":"22","num_nodes":"9","size_leaf_vector":"1"}},{"base_weights":[-6.3314927E-3,-8.866523E-2,1.6901915E-1,-1.1310985E-1,1.2807913E-1,-5.853167E-2,6.859022E-3],"categories":[],"categories_nodes":[],"categories_segments":[],"categories_sizes":[],"default_left":[0,0,0,0,0,0,0],"id":20,"left_children":[1,-1,3,5,-1,-1,-1],"loss_changes":[3.8672596E-1,0E0,3.953938E-1,3.867462E-2,0E0,0E0,0E0],"parents":[2147483647,0,0,2,2,3,3],"right_children":[2,-1,4,6,-1,-1,-1],"split_conditions":[-5.745452E-1,-8.866523E-2,-4.0860254E-1,-4.631949E-1,1.2807913E-1,-5.853167E-2,6.859022E-3],"split_indices":[19,0,20,21,0,0,0],"split_type":[0,0,0,0,0,0,0],"sum_hessian":[5.640514E0,1.8702623E0,3.7702515E0,2.0687194E0,1.7015321E0,1.0192195E0,1.0495E0],"tree_param":{"num_deleted":"0","num_feature":"22","num_nodes":"7","size_leaf_vector":"1"}},{"base_weights":[-5.5452567E-3,-8.292579E-2,1.521865E-1,-6.244199E-2,1.22302145E-1],"categories":[],"categories_nodes":[],"categories_segments":[],"categories_sizes":[],"default_left":[0,0,0,0,0],"id":21,"left_children":[1,-1,3,-1,-1],"loss_changes":[3.1754953E-1,0E0,5.1935446E-1,0E0,0E0],"parents":[2147483647,0,0,2,2],"right_children":[2,-1,4,-1,-1],"split_conditions":[-8.62852E-1,-8.292579E-2,-4.955286E-1,-6.244199E-2,1.22302145E-1],"split_indices":[17,0,14,0,0],"split_type":[0,0,0,0,0],"sum_hessian":[5.4477344E0,1.7279124E0,3.7198222E0,1.6201565E0,2.0996656E0],"tree_param":{"num_deleted":"0","num_feature":"22","num_nodes":"5","size_leaf_vector":"1"}},{"base_weights":[-6.674587E-3,1.3299863E-1,-7.995618E-2,-1.6341384E-1,1.5192482E-1,-1.0781835E-1,3.9050683E-2],"categories":[],"categories_nodes":[],"categories_segments":[],"categories_sizes":[],"default_left":[0,0,0,0,0,0,0],"id":22,"left_children":[1,3,-1,5,-1,-1,-1],"loss_changes":[2.6296476E-1,6.0788417E-1,0E0,2.4245866E-1,0E0,0E0,0E0],"parents":[2147483647,0,0,1,1,3,3],"right_children":[2,4,-1,6,-1,-1,-1],"split_conditions":[1.0378734E0,-4.3287298E-1,-7.995618E-2,-5.325432E-1,1.5192482E-1,-1.0781835E-1,3.9050683E-2],"split_indices":[0,0,0,5,0,0,0],"split_type":[0,0,0,0,0,0,0],"sum_hessian":[5.268829E0,3.7443295E0,1.5244997E0,2.4009101E0,1.3434193E0,1.3053551E0,1.095555E0],"tree_param":{"num_deleted":"0","num_feature":"22","num_nodes":"7","size_leaf_vector":"1"}},{"base_weights":[-3.150185E-3,-7.616301E-2,1.4923432E-1,-2.7736066E-2,1.09233744E-1],"categories":[],"categories_nodes":[],"categories_segments":[],"categories_sizes":[],"default_left":[0,0,0,0,0],"id":23,"left_children":[1,-1,3,-1,-1],"loss_changes":[2.6749745E-1,0E0,2.6049206E-1,0E0,0E0],"parents":[2147483647,0,0,2,2],"right_children":[2,-1,4,-1,-1],"split_conditions":[-5.745452E-1,-7.616301E-2,-4.3287298E-1,-2.7736066E-2,1.09233744E-1],"split_indices":[19,0,0,0,0],"split_type":[0,0,0,0,0],"sum_hessian":[5.009667E0,1.641988E0,3.3676786E0,1.8531058E0,1.514573E0],"tree_param":{"num_deleted":"0","num_feature":"22","num_nodes":"5","size_leaf_vector":"1"}},{"base_weights":[-7.311316E-4,-7.365632E-2,1.4831977E-1,-3.8418632E-2,1.2229157E-1],"categories":[],"categories_nodes":[],"categories_segments":[],"categories_sizes":[],"default_left":[0,0,0,0,0],"id":24,"left_children":[1,-1,3,-1,-1],"loss_changes":[2.5119072E-1,0E0,3.5910663E-1,0E0,0E0],"parents":[2147483647,0,0,2,2],"right_children":[2,-1,4,-1,-1],"split_conditions":[-8.62852E-1,-7.365632E-2,-5.156521E-1,-3.8418632E-2,1.2229157E-1],"split_indices":[17,0,5,0,0],"split_type":[0,0,0,0,0],"sum_hessian":[4.8864813E0,1.6043646E0,3.2821167E0,1.8338062E0,1.4483105E0],"tree_param":{"num_deleted":"0","num_feature":"22","num_nodes":"5","size_leaf_vector":"1"}},{"base_weights":[2.2077805E-3,1.6670382E-1,-6.1673917E-2,-3.4418385E-2,1.02395244E-1],"categories":[],"categories_nodes":[],"categories_segments":[],"categories_sizes":[],"default_left":[0,0,0,0,0],"id":25,"left_children":[1,3,-1,-1,-1],"loss_changes":[2.3093615E-1,2.2411089E-1,0E0,0E0,0E0],"parents":[2147483647,0,0,1,1],"right_children":[2,4,-1,-1,-1],"split_conditions":[1.07291706E-1,-8.951366E-1,-6.1673917E-2,-3.4418385E-2,1.02395244E-1],"split_indices":[1,0,0,0,0],"split_type":[0,0,0,0,0],"sum_hessian":[4.7537737E0,2.7636418E0,1.9901316E0,1.1894765E0,1.5741653E0],"tree_param":{"num_deleted":"0","num_feature":"22","num_nodes":"5","size_leaf_vector":"1"}},{"base_weights":[3.293712E-3,-1.6644453E-1,1.9098069E-1,3.917952E-2,-1.1042093E-1,-2.37178E-2,1.1292923E-1],"categories":[],"categories_nodes":[],"categories_segments":[],"categories_sizes":[],"default_left":[0,0,0,0,0,0,0],"id":26,"left_children":[1,3,5,-1,-1,-1,-1],"loss_changes":[2.1178873E-1,2.5776523E-1,1.874536E-1,0E0,0E0,0E0,0E0],"parents":[2147483647,0,0,1,1,2,2],"right_children":[2,4,6,-1,-1,-1,-1],"split_conditions":[-4.76111E-1,-4.0189943E-1,-3.0817223E-1,3.917952E-2,-1.1042093E-1,-2.37178E-2,1.1292923E-1],"split_indices":[21,4,19,0,0,0,0],"split_type":[0,0,0,0,0,0,0],"sum_hessian":[4.650166E0,2.501273E0,2.1488929E0,1.1537663E0,1.3475066E0,1.1084831E0,1.0404099E0],"tree_param":{"num_deleted":"0","num_feature":"22","num_nodes":"7","size_leaf_vector":"1"}},{"base_weights":[5.905012E-3,1.3133873E-1,-6.523667E-2,-1.0860326E-1,1.306133E-1,-7.29186E-2,2.6303237E-2],"categories":[],"categories_nodes":[],"categories_segments":[],"categories_sizes":[],"default_left":[0,0,0,0,0,0,0],"id":27,"left_children":[1,3,-1,5,-1,-1,-1],"loss_changes":[1.8277156E-1,3.49904E-1,0E0,1.0362299E-1,0E0,0E0,0E0],"parents":[2147483647,0,0,1,1,3,3],"right_children":[2,4,-1,6,-1,-1,-1],"split_conditions":[1.0378734E0,-4.3287298E-1,-6.523667E-2,-5.3929955E-1,1.306133E-1,-7.29186E-2,2.6303237E-2],"split_indices":[0,0,0,5,0,0,0],"split_type":[0,0,0,0,0,0,0],"sum_hessian":[4.5042124E0,3.1482317E0,1.3559805E0,2.1188622E0,1.0293696E0,1.116016E0,1.0028462E0],"tree_param":{"num_deleted":"0","num_feature":"22","num_nodes":"7","size_leaf_vector":"1"}},{"base_weights":[8.663959E-3,-6.505266E-2,1.4303961E-1,-2.0236049E-2,1.00450374E-1],"categories":[],"categories_nodes":[],"categories_segments":[],"categories_sizes":[],"default_left":[0,0,0,0,0],"id":28,"left_children":[1,-1,3,-1,-1],"loss_changes":[1.9300056E-1,0E0,1.8213877E-1,0E0,0E0],"parents":[2147483647,0,0,2,2],"right_children":[2,-1,4,-1,-1],"split_conditions":[-5.745452E-1,-6.505266E-2,-4.0860254E-1,-2.0236049E-2,1.00450374E-1],"split_indices":[19,0,20,0,0],"split_type":[0,0,0,0,0],"sum_hessian":[4.3455443E0,1.3934265E0,2.9521177E0,1.7165381E0,1.2355796E0],"tree_param":{"num_deleted":"0","num_feature":"22","num_nodes":"5","size_leaf_vector":"1"}},{"base_weights":[9.57508E-3,1.6185538E-1,-5.4621827E-2,1.0654622E-1,-2.1921169E-2],"categories":[],"categories_nodes":[],"categories_segments":[],"categories_sizes":[],"default_left":[0,0,0,0,0],"id":29,"left_children":[1,3,-1,-1,-1],"loss_changes":[1.8274875E-1,1.8289362E-1,0E0,0E0,0E0],"parents":[2147483647,0,0,1,1],"right_children":[2,4,-1,-1,-1],"split_conditions":[1.07291706E-1,-4.3085283E-1,-5.4621827E-2,1.0654622E-1,-2.1921169E-2],"split_indices":[1,19,0,0,0],"split_type":[0,0,0,0,0],"sum_hessian":[4.2521353E0,2.4560509E0,1.7960845E0,1.066641E0,1.3894099E0],"tree_param":{"num_deleted":"0","num_feature":"22","num_nodes":"5","size_leaf_vector":"1"}},{"base_weights":[1.3103576E-2,-5.8860727E-2,1.4219588E-1,-3.0381892E-2,1.0895632E-1],"categories":[],"categories_nodes":[],"categories_segments":[],"categories_sizes":[],"default_left":[0,0,0,0,0],"id":30,"left_children":[1,-1,3,-1,-1],"loss_changes":[1.6785625E-1,0E0,2.403565E-1,0E0,0E0],"parents":[2147483647,0,0,2,2],"right_children":[2,-1,4,-1,-1],"split_conditions":[-8.62852E-1,-5.8860727E-2,-5.156521E-1,-3.0381892E-2,1.0895632E-1],"split_indices":[17,0,5,0,0],"split_type":[0,0,0,0,0],"sum_hessian":[4.1797976E0,1.3961939E0,2.783604E0,1.5822064E0,1.2013977E0],"tree_param":{"num_deleted":"0","num_feature":"22","num_nodes":"5","size_leaf_vector":"1"}},{"base_weights":[1.3929892E-2,-6.1745707E-2,1.4286096E-1,-1.877417E-2,9.554559E-2],"categories":[],"categories_nodes":[],"categories_segments":[],"categories_sizes":[],"default_left":[0,0,0,0,0],"id":31,"left_children":[1,-1,3,-1,-1],"loss_changes":[1.735219E-1,0E0,1.5689518E-1,0E0,0E0],"parents":[2147483647,0,0,2,2],"right_children":[2,-1,4,-1,-1],"split_conditions":[-5.745452E-1,-6.1745707E-2,-4.3287298E-1,-1.877417E-2,9.554559E-2],"split_indices":[19,0,0,0,0],"split_type":[0,0,0,0,0],"sum_hessian":[4.086688E0,1.2906194E0,2.796069E0,1.5852941E0,1.2107747E0],"tree_param":{"num_deleted":"0","num_feature":"22","num_nodes":"5","size_leaf_vector":"1"}},{"base_weights":[1.3366888E-2,1.5567179E-1,-5.027337E-2,9.92185E-2,-1.8765638E-2],"categories":[],"categories_nodes":[],"categories_segments":[],"categories_sizes":[],"default_left":[0,0,0,0,0],"id":32,"left_children":[1,3,-1,-1,-1],"loss_changes":[1.5497759E-1,1.4753139E-1,0E0,0E0,0E0],"parents":[2147483647,0,0,1,1],"right_children":[2,4,-1,-1,-1],"split_conditions":[1.07291706E-1,-4.3085283E-1,-5.027337E-2,9.92185E-2,-1.8765638E-2],"split_indices":[1,19,0,0,0],"split_type":[0,0,0,0,0],"sum_hessian":[4.0055842E0,2.3203816E0,1.685203E0,1.0014694E0,1.3189121E0],"tree_param":{"num_deleted":"0","num_feature":"22","num_nodes":"5","size_leaf_vector":"1"}},{"base_weights":[1.600907E-2,6.95357E-2,-1.12172894E-1,-9.302343E-2,2.7599413E-2],"categories":[],"categories_nodes":[],"categories_segments":[],"categories_sizes":[],"default_left":[0,0,0,0,0],"id":33,"left_children":[1,-1,3,-1,-1],"loss_changes":[1.6277122E-1,0E0,1.8110217E-1,0E0,0E0],"parents":[2147483647,0,0,2,2],"right_children":[2,-1,4,-1,-1],"split_conditions":[-4.0189943E-1,6.95357E-2,-4.76111E-1,-9.302343E-2,2.7599413E-2],"split_indices":[4,0,21,0,0],"split_type":[0,0,0,0,0],"sum_hessian":[3.9449658E0,1.1689483E0,2.7760174E0,1.146238E0,1.6297795E0],"tree_param":{"num_deleted":"0","num_feature":"22","num_nodes":"5","size_leaf_vector":"1"}},{"base_weights":[1.2040456E-2,-1.258559E-1,6.370435E-2,5.8164757E-2,-1.2289951E-1],"categories":[],"categories_nodes":[],"categories_segments":[],"categories_sizes":[],"default_left":[0,0,0,0,0],"id":34,"left_children":[1,3,-1,-1,-1],"loss_changes":[1.6129777E-1,3.9824906E-1,0E0,0E0,0E0],"parents":[2147483647,0,0,1,1],"right_children":[2,4,-1,-1,-1],"split_conditions":[-2.235363E-1,9.265168E-2,6.370435E-2,5.8164757E-2,-1.2289951E-1],"split_indices":[19,1,0,0,0],"split_type":[0,0,0,0,0],"sum_hessian":[3.8719943E0,2.5133977E0,1.3585966E0,1.3308841E0,1.1825136E0],"tree_param":{"num_deleted":"0","num_feature":"22","num_nodes":"5","size_leaf_vector":"1"}},{"base_weights":[7.7423626E-3,-1.1620074E-1,6.371392E-2,2.9824877E-2,-8.53545E-2],"categories":[],"categories_nodes":[],"categories_segments":[],"categories_sizes":[],"default_left":[0,0,0,0,0],"id":35,"left_children":[1,3,-1,-1,-1],"loss_changes":[1.449429E-1,1.5891328E-1,0E0,0E0,0E0],"parents":[2147483647,0,0,1,1],"right_children":[2,4,-1,-1,-1],"split_conditions":[-4.6945524E-1,-6.986051E-1,6.371392E-2,2.9824877E-2,-8.53545E-2],"split_indices":[9,11,0,0,0],"split_type":[0,0,0,0,0],"sum_hessian":[3.7416463E0,2.5994158E0,1.1422305E0,1.3190296E0,1.2803862E0],"tree_param":{"num_deleted":"0","num_feature":"22","num_nodes":"5","size_leaf_vector":"1"}},{"base_weights":[7.123207E-3,-5.9942663E-2,1.2887365E-1,-2.1305228E-2,9.13114E-2],"categories":[],"categories_nodes":[],"categories_segments":[],"categories_sizes":[],"default_left":[0,0,0,0,0],"id":36,"left_children":[1,-1,3,-1,-1],"loss_changes":[1.4360115E-1,0E0,1.4625344E-1,0E0,0E0],"parents":[2147483647,0,0,2,2],"right_children":[2,-1,4,-1,-1],"split_conditions":[-5.745452E-1,-5.9942663E-2,-4.3287298E-1,-2.1305228E-2,9.13114E-2],"split_indices":[19,0,0,0,0],"split_type":[0,0,0,0,0],"sum_hessian":[3.6777298E0,1.1248144E0,2.5529153E0,1.4718369E0,1.0810785E0],"tree_param":{"num_deleted":"0","num_feature":"22","num_nodes":"5","size_leaf_vector":"1"}},{"base_weights":[7.6309578E-3,-5.4735508E-2,1.2544338E-1,-4.811776E-2,9.908601E-2],"categories":[],"categories_nodes":[],"categories_segments":[],"categories_sizes":[],"default_left":[0,0,0,0,0],"id":37,"left_children":[1,-1,3,-1,-1],"loss_changes":[1.2607478E-1,0E0,2.5423217E-1,0E0,0E0],"parents":[2147483647,0,0,2,2],"right_children":[2,-1,4,-1,-1],"split_conditions":[-8.0579925E-1,-5.4735508E-2,-3.3780167E-1,-4.811776E-2,9.908601E-2],"split_indices":[21,0,16,0,0],"split_type":[0,0,0,0,0],"sum_hessian":[3.6077957E0,1.1705414E0,2.4372544E0,1.1080681E0,1.3291863E0],"tree_param":{"num_deleted":"0","num_feature":"22","num_nodes":"5","size_leaf_vector":"1"}},{"base_weights":[5.1860395E-3,-5.833878E-2,1.3352272E-1,-3.3320453E-2,8.7622225E-2],"categories":[],"categories_nodes":[],"categories_segments":[],"categories_sizes":[],"default_left":[0,0,0,0,0],"id":38,"left_children":[1,-1,3,-1,-1],"loss_changes":[1.4170854E-1,0E0,1.6206826E-1,0E0,0E0],"parents":[2147483647,0,0,2,2],"right_children":[2,-1,4,-1,-1],"split_conditions":[-8.62852E-1,-5.833878E-2,-4.955286E-1,-3.3320453E-2,8.7622225E-2],"split_indices":[17,0,14,0,0],"split_type":[0,0,0,0,0],"sum_hessian":[3.5173001E0,1.1746645E0,2.3426356E0,1.0391152E0,1.3035204E0],"tree_param":{"num_deleted":"0","num_feature":"22","num_nodes":"5","size_leaf_vector":"1"}},{"base_weights":[3.1813616E-3,-5.1830534E-2,1.1166818E-1,8.550864E-2,-4.354999E-2],"categories":[],"categories_nodes":[],"categories_segments":[],"categories_sizes":[],"default_left":[0,0,0,0,0],"id":39,"left_children":[1,-1,3,-1,-1],"loss_changes":[1.0417116E-1,0E0,1.9089407E-1,0E0,0E0],"parents":[2147483647,0,0,2,2],"right_children":[2,-1,4,-1,-1],"split_conditions":[-8.951366E-1,-5.1830534E-2,1.0378734E0,8.550864E-2,-4.354999E-2],"split_indices":[0,0,0,0,0],"split_type":[0,0,0,0,0],"sum_hessian":[3.4466348E0,1.0885828E0,2.358052E0,1.342264E0,1.0157881E0],"tree_param":{"num_deleted":"0","num_feature":"22","num_nodes":"5","size_leaf_vector":"1"}},{"base_weights":[3.9209882E-4,-5.119105E-2,1.1009611E-1,-4.1338652E-2,8.764375E-2],"categories":[],"categories_nodes":[],"categories_segments":[],"categories_sizes":[],"default_left":[0,0,0,0,0],"id":40,"left_children":[1,-1,3,-1,-1],"loss_changes":[1.00838654E-1,0E0,1.879204E-1,0E0,0E0],"parents":[2147483647,0,0,2,2],"right_children":[2,-1,4,-1,-1],"split_conditions":[-8.0579925E-1,-5.119105E-2,-3.3780167E-1,-4.1338652E-2,8.764375E-2],"split_indices":[21,0,16,0,0],"split_type":[0,0,0,0,0],"sum_hessian":[3.3731878E0,1.1011156E0,2.2720723E0,1.0649925E0,1.2070798E0],"tree_param":{"num_deleted":"0","num_feature":"22","num_nodes":"5","size_leaf_vector":"1"}},{"base_weights":[-4.693082E-4,-5.2365176E-2,1.14873365E-1,-2.0278953E-2,7.620262E-2],"categories":[],"categories_nodes":[],"categories_segments":[],"categories_sizes":[],"default_left":[0,0,0,0,0],"id":41,"left_children":[1,-1,3,-1,-1],"loss_changes":[1.0645363E-1,0E0,9.819131E-2,0E0,0E0],"parents":[2147483647,0,0,2,2],"right_children":[2,-1,4,-1,-1],"split_conditions":[-8.62852E-1,-5.2365176E-2,-5.325432E-1,-2.0278953E-2,7.620262E-2],"split_indices":[17,0,5,0,0],"split_type":[0,0,0,0,0],"sum_hessian":[3.3031237E0,1.1118058E0,2.1913178E0,1.170468E0,1.0208498E0],"tree_param":{"num_deleted":"0","num_feature":"22","num_nodes":"5","size_leaf_vector":"1"}},{"base_weights":[7.441692E-4,-1.0813762E-1,4.831179E-2,-7.29259E-2,2.2996744E-2],"categories":[],"categories_nodes":[],"categories_segments":[],"categories_sizes":[],"default_left":[0,0,0,0,0],"id":42,"left_children":[1,3,-1,-1,-1],"loss_changes":[9.169964E-2,9.676024E-2,0E0,0E0,0E0],"parents":[2147483647,0,0,1,1],"right_children":[2,4,-1,-1,-1],"split_conditions":[8.4564704E-1,-4.3287298E-1,4.831179E-2,-7.29259E-2,2.2996744E-2],"split_indices":[15,0,0,0,0],"split_type":[0,0,0,0,0],"sum_hessian":[3.2562482E0,2.1328657E0,1.1233826E0,1.0503672E0,1.0824984E0],"tree_param":{"num_deleted":"0","num_feature":"22","num_nodes":"5","size_leaf_vector":"1"}},{"base_weights":[2.7702812E-5,-1.0242493E-1,4.457543E-2,-1.0068222E-1,5.4848544E-2],"categories":[],"categories_nodes":[],"categories_segments":[],"categories_sizes":[],"default_left":[0,0,0,0,0],"id":43,"left_children":[1,3,-1,-1,-1],"loss_changes":[7.9434544E-2,2.6682693E-1,0E0,0E0,0E0],"parents":[2147483647,0,0,1,1],"right_children":[2,4,-1,-1,-1],"split_conditions":[-2.235363E-1,-5.653727E-1,4.457543E-2,-1.0068222E-1,5.4848544E-2],"split_indices":[19,17,0,0,0],"split_type":[0,0,0,0,0],"sum_hessian":[3.2191522E0,2.0890026E0,1.1301495E0,1.0522828E0,1.0367198E0],"tree_param":{"num_deleted":"0","num_feature":"22","num_nodes":"5","size_leaf_vector":"1"}},{"base_weights":[-6.988374E-4,-3.2522608E-2,3.9205413E-2],"categories":[],"categories_nodes":[],"categories_segments":[],"categories_sizes":[],"default_left":[0,0,0],"id":44,"left_children":[1,-1,-1],"loss_changes":[7.2802976E-2,0E0,0E0],"parents":[2147483647,0,0],"right_children":[2,-1,-1],"split_conditions":[-4.7849193E-1,-3.2522608E-2,3.9205413E-2],"split_indices":[5,0,0],"split_type":[0,0,0],"sum_hessian":[3.143479E0,1.823456E0,1.3200231E0],"tree_param":{"num_deleted":"0","num_feature":"22","num_nodes":"3","size_leaf_vector":"1"}},{"base_weights":[1.1612647E-3,4.154153E-2,-9.20048E-2,-7.4712045E-2,3.2596E-2],"categories":[],"categories_nodes":[],"categories_segments":[],"categories_sizes":[],"default_left":[0,0,0,0,0],"id":45,"left_children":[1,-1,3,-1,-1],"loss_changes":[6.5488145E-2,0E0,1.2339696E-1,0E0,0E0],"parents":[2147483647,0,0,2,2],"right_children":[2,-1,4,-1,-1],"split_conditions":[-5.8532774E-1,4.154153E-2,-4.0749222E-1,-7.4712045E-2,3.2596E-2],"split_indices":[3,0,21,0,0],"split_type":[0,0,0,0,0],"sum_hessian":[3.1233015E0,1.0659652E0,2.0573363E0,1.018859E0,1.0384773E0],"tree_param":{"num_deleted":"0","num_feature":"22","num_nodes":"5","size_leaf_vector":"1"}},{"base_weights":[5.0615374E-4,-3.48542E-2,3.76844E-2],"categories":[],"categories_nodes":[],"categories_segments":[],"categories_sizes":[],"default_left":[0,0,0],"id":46,"left_children":[1,-1,-1],"loss_changes":[7.415166E-2,0E0,0E0],"parents":[2147483647,0,0],"right_children":[2,-1,-1],"split_conditions":[-4.6305543E-1,-3.48542E-2,3.76844E-2],"split_indices":[20,0,0],"split_type":[0,0,0],"sum_hessian":[3.0797076E0,1.6304098E0,1.4492979E0],"tree_param":{"num_deleted":"0","num_feature":"22","num_nodes":"3","size_leaf_vector":"1"}},{"base_weights":[1.0753773E-3,3.0758416E-2,-3.6970835E-2],"categories":[],"categories_nodes":[],"categories_segments":[],"categories_sizes":[],"default_left":[0,0,0],"id":47,"left_children":[1,-1,-1],"loss_changes":[6.383981E-2,0E0,0E0],"parents":[2147483647,0,0],"right_children":[2,-1,-1],"split_conditions":[1.07291706E-1,3.0758416E-2,-3.6970835E-2],"split_indices":[1,0,0],"split_type":[0,0,0],"sum_hessian":[3.0600798E0,1.7814454E0,1.2786343E0],"tree_param":{"num_deleted":"0","num_feature":"22","num_nodes":"3","size_leaf_vector":"1"}},{"base_weights":[-7.7903236E-4,-3.5581604E-2,3.488186E-2],"categories":[],"categories_nodes":[],"categories_segments":[],"categories_sizes":[],"default_left":[0,0,0],"id":48,"left_children":[1,-1,-1],"loss_changes":[6.958188E-2,0E0,0E0],"parents":[2147483647,0,0],"right_children":[2,-1,-1],"split_conditions":[-4.3287298E-1,-3.5581604E-2,3.488186E-2],"split_indices":[0,0,0],"split_type":[0,0,0],"sum_hessian":[3.0452538E0,1.5109928E0,1.534261E0],"tree_param":{"num_deleted":"0","num_feature":"22","num_nodes":"3","size_leaf_vector":"1"}},{"base_weights":[-7.098922E-4,-2.8210985E-2,4.096386E-2],"categories":[],"categories_nodes":[],"categories_segments":[],"categories_sizes":[],"default_left":[0,0,0],"id":49,"left_children":[1,-1,-1],"loss_changes":[6.444577E-2,0E0,0E0],"parents":[2147483647,0,0],"right_children":[2,-1,-1],"split_conditions":[-2.235363E-1,-2.8210985E-2,4.096386E-2],"split_indices":[19,0,0],"split_type":[0,0,0],"sum_hessian":[3.0286334E0,1.9902519E0,1.0383816E0],"tree_param":{"num_deleted":"0","num_feature":"22","num_nodes":"3","size_leaf_vector":"1"}},{"base_weights":[2.720101E-3,-3.953602E-2,9.1254786E-2,6.847923E-2,-2.7603058E-2],"categories":[],"categories_nodes":[],"categories_segments":[],"categories_sizes":[],"default_left":[0,0,0,0,0],"id":50,"left_children":[1,-1,3,-1,-1],"loss_changes":[5.979752E-2,0E0,9.6581824E-2,0E0,0E0],"parents":[2147483647,0,0,2,2],"right_children":[2,-1,4,-1,-1],"split_conditions":[-4.955286E-1,-3.953602E-2,-3.2935834E-1,6.847923E-2,-2.7603058E-2],"split_indices":[14,0,6,0,0],"split_type":[0,0,0,0,0],"sum_hessian":[3.0115266E0,1.0014839E0,2.0100427E0,1.0096698E0,1.0003729E0],"tree_param":{"num_deleted":"0","num_feature":"22","num_nodes":"5","size_leaf_vector":"1"}},{"base_weights":[2.435278E-3,-3.0342372E-2,3.782938E-2],"categories":[],"categories_nodes":[],"categories_segments":[],"categories_sizes":[],"default_left":[0,0,0],"id":51,"left_children":[1,-1,-1],"loss_changes":[6.36564E-2,0E0,0E0],"parents":[2147483647,0,0],"right_children":[2,-1,-1],"split_conditions":[-4.7849193E-1,-3.0342372E-2,3.782938E-2],"split_indices":[5,0,0],"split_type":[0,0,0],"sum_hessian":[2.97412E0,1.7176131E0,1.2565067E0],"tree_param":{"num_deleted":"0","num_feature":"22","num_nodes":"3","size_leaf_vector":"1"}},{"base_weights":[3.634649E-3,-2.9386247E-2,4.402169E-2],"categories":[],"categories_nodes":[],"categories_segments":[],"categories_sizes":[],"default_left":[0,0,0],"id":52,"left_children":[1,-1,-1],"loss_changes":[7.1884856E-2,0E0,0E0],"parents":[2147483647,0,0],"right_children":[2,-1,-1],"split_conditions":[8.4564704E-1,-2.9386247E-2,4.402169E-2],"split_indices":[15,0,0],"split_type":[0,0,0],"sum_hessian":[2.9559748E0,1.9132656E0,1.0427092E0],"tree_param":{"num_deleted":"0","num_feature":"22","num_nodes":"3","size_leaf_vector":"1"}},{"base_weights":[6.300919E-3,3.0950552E-2,-3.4644764E-2],"categories":[],"categories_nodes":[],"categories_segments":[],"categories_sizes":[],"default_left":[0,0,0],"id":53,"left_children":[1,-1,-1],"loss_changes":[5.8439635E-2,0E0,0E0],"parents":[2147483647,0,0],"right_children":[2,-1,-1],"split_conditions":[1.07291706E-1,3.0950552E-2,-3.4644764E-2],"split_indices":[1,0,0],"split_type":[0,0,0],"sum_hessian":[2.943883E0,1.7248087E0,1.2190742E0],"tree_param":{"num_deleted":"0","num_feature":"22","num_nodes":"3","size_leaf_vector":"1"}},{"base_weights":[3.491743E-3,-2.953195E-2,3.7622735E-2],"categories":[],"categories_nodes":[],"categories_segments":[],"categories_sizes":[],"default_left":[0,0,0],"id":54,"left_children":[1,-1,-1],"loss_changes":[6.1186295E-2,0E0,0E0],"parents":[2147483647,0,0],"right_children":[2,-1,-1],"split_conditions":[-4.7849193E-1,-2.953195E-2,3.7622735E-2],"split_indices":[5,0,0],"split_type":[0,0,0],"sum_hessian":[2.9301639E0,1.7007694E0,1.2293944E0],"tree_param":{"num_deleted":"0","num_feature":"22","num_nodes":"3","size_leaf_vector":"1"}},{"base_weights":[4.553048E-3,4.051234E-2,-2.602329E-2],"categories":[],"categories_nodes":[],"categories_segments":[],"categories_sizes":[],"default_left":[0,0,0],"id":55,"left_children":[1,-1,-1],"loss_changes":[5.8328796E-2,0E0,0E0],"parents":[2147483647,0,0],"right_children":[2,-1,-1],"split_conditions":[-5.8532774E-1,4.051234E-2,-2.602329E-2],"split_indices":[3,0,0],"split_type":[0,0,0],"sum_hessian":[2.9128609E0,1.0018363E0,1.9110246E0],"tree_param":{"num_deleted":"0","num_feature":"22","num_nodes":"3","size_leaf_vector":"1"}},{"base_weights":[6.937342E-3,-3.0667592E-2,3.1930283E-2],"categories":[],"categories_nodes":[],"categories_segments":[],"categories_sizes":[],"default_left":[0,0,0],"id":56,"left_children":[1,-1,-1],"loss_changes":[5.3275377E-2,0E0,0E0],"parents":[2147483647,0,0],"right_children":[2,-1,-1],"split_conditions":[-4.6140078E-1,-3.0667592E-2,3.1930283E-2],"split_indices":[18,0,0],"split_type":[0,0,0],"sum_hessian":[2.9033E0,1.3713297E0,1.5319705E0],"tree_param":{"num_deleted":"0","num_feature":"22","num_nodes":"3","size_leaf_vector":"1"}},{"base_weights":[5.213712E-3,-2.9605377E-2,3.4227435E-2],"categories":[],"categories_nodes":[],"categories_segments":[],"categories_sizes":[],"default_left":[0,0,0],"id":57,"left_children":[1,-1,-1],"loss_changes":[5.5244513E-2,0E0,0E0],"parents":[2147483647,0,0],"right_children":[2,-1,-1],"split_conditions":[-4.6305543E-1,-2.9605377E-2,3.4227435E-2],"split_indices":[20,0,0],"split_type":[0,0,0],"sum_hessian":[2.8883157E0,1.5258598E0,1.3624557E0],"tree_param":{"num_deleted":"0","num_feature":"22","num_nodes":"3","size_leaf_vector":"1"}},{"base_weights":[4.8780343E-3,2.9252693E-2,-3.386722E-2],"categories":[],"categories_nodes":[],"categories_segments":[],"categories_sizes":[],"default_left":[0,0,0],"id":58,"left_children":[1,-1,-1],"loss_changes":[5.3258996E-2,0E0,0E0],"parents":[2147483647,0,0],"right_children":[2,-1,-1],"split_conditions":[1.359581E-1,2.9252693E-2,-3.386722E-2],"split_indices":[1,0,0],"split_type":[0,0,0],"sum_hessian":[2.8730416E0,1.7044432E0,1.1685984E0],"tree_param":{"num_deleted":"0","num_feature":"22","num_nodes":"3","size_leaf_vector":"1"}},{"base_weights":[2.2331155E-3,-3.2116532E-2,3.3042207E-2],"categories":[],"categories_nodes":[],"categories_segments":[],"categories_sizes":[],"default_left":[0,0,0],"id":59,"left_children":[1,-1,-1],"loss_changes":[5.7319425E-2,0E0,0E0],"parents":[2147483647,0,0],"right_children":[2,-1,-1],"split_conditions":[-4.3287298E-1,-3.2116532E-2,3.3042207E-2],"split_indices":[0,0,0],"split_type":[0,0,0],"sum_hessian":[2.8606124E0,1.425139E0,1.4354734E0],"tree_param":{"num_deleted":"0","num_feature":"22","num_nodes":"3","size_leaf_vector":"1"}},{"base_weights":[1.8222191E-3,-3.0899996E-2,3.3999555E-2],"categories":[],"categories_nodes":[],"categories_segments":[],"categories_sizes":[],"default_left":[0,0,0],"id":60,"left_children":[1,-1,-1],"loss_changes":[5.66323E-2,0E0,0E0],"parents":[2147483647,0,0],"right_children":[2,-1,-1],"split_conditions":[-3.3780167E-1,-3.0899996E-2,3.3999555E-2],"split_indices":[16,0,0],"split_type":[0,0,0],"sum_hessian":[2.8463793E0,1.5065205E0,1.3398588E0],"tree_param":{"num_deleted":"0","num_feature":"22","num_nodes":"3","size_leaf_vector":"1"}},{"base_weights":[2.1046821E-3,3.236894E-2,-2.9183557E-2],"categories":[],"categories_nodes":[],"categories_segments":[],"categories_sizes":[],"default_left":[0,0,0],"id":61,"left_children":[1,-1,-1],"loss_changes":[5.0796784E-2,0E0,0E0],"parents":[2147483647,0,0],"right_children":[2,-1,-1],"split_conditions":[-6.159467E-1,3.236894E-2,-2.9183557E-2],"split_indices":[12,0,0],"split_type":[0,0,0],"sum_hessian":[2.8330855E0,1.330805E0,1.5022806E0],"tree_param":{"num_deleted":"0","num_feature":"22","num_nodes":"3","size_leaf_vector":"1"}},{"base_weights":[2.321963E-3,-2.967013E-2,3.669457E-2],"categories":[],"categories_nodes":[],"categories_segments":[],"categories_sizes":[],"default_left":[0,0,0],"id":62,"left_children":[1,-1,-1],"loss_changes":[5.8552414E-2,0E0,0E0],"parents":[2147483647,0,0],"right_children":[2,-1,-1],"split_conditions":[-4.7849193E-1,-2.967013E-2,3.669457E-2],"split_indices":[5,0,0],"split_type":[0,0,0],"sum_hessian":[2.824746E0,1.6275672E0,1.1971788E0],"tree_param":{"num_deleted":"0","num_feature":"22","num_nodes":"3","size_leaf_vector":"1"}},{"base_weights":[3.5034819E-3,2.829202E-2,-3.2017928E-2],"categories":[],"categories_nodes":[],"categories_segments":[],"categories_sizes":[],"default_left":[0,0,0],"id":63,"left_children":[1,-1,-1],"loss_changes":[4.818306E-2,0E0,0E0],"parents":[2147483647,0,0],"right_children":[2,-1,-1],"split_conditions":[1.07291706E-1,2.829202E-2,-3.2017928E-2],"split_indices":[1,0,0],"split_type":[0,0,0],"sum_hessian":[2.808288E0,1.6190388E0,1.1892493E0],"tree_param":{"num_deleted":"0","num_feature":"22","num_nodes":"3","size_leaf_vector":"1"}},{"base_weights":[1.4815181E-3,-3.1795174E-2,3.220785E-2],"categories":[],"categories_nodes":[],"categories_segments":[],"categories_sizes":[],"default_left":[0,0,0],"id":64,"left_children":[1,-1,-1],"loss_changes":[5.458088E-2,0E0,0E0],"parents":[2147483647,0,0],"right_children":[2,-1,-1],"split_conditions":[-4.3287298E-1,-3.1795174E-2,3.220785E-2],"split_indices":[0,0,0],"split_type":[0,0,0],"sum_hessian":[2.7969456E0,1.3875705E0,1.4093752E0],"tree_param":{"num_deleted":"0","num_feature":"22","num_nodes":"3","size_leaf_vector":"1"}},{"base_weights":[1.1601896E-3,-2.8976502E-2,3.1601872E-2],"categories":[],"categories_nodes":[],"categories_segments":[],"categories_sizes":[],"default_left":[0,0,0],"id":65,"left_children":[1,-1,-1],"loss_changes":[4.8702832E-2,0E0,0E0],"parents":[2147483647,0,0],"right_children":[2,-1,-1],"split_conditions":[-3.3780167E-1,-2.8976502E-2,3.1601872E-2],"split_indices":[16,0,0],"split_type":[0,0,0],"sum_hessian":[2.783445E0,1.4736379E0,1.3098071E0],"tree_param":{"num_deleted":"0","num_feature":"22","num_nodes":"3","size_leaf_vector":"1"}},{"base_weights":[1.5225686E-3,-3.3453498E-2,2.8685724E-2],"categories":[],"categories_nodes":[],"categories_segments":[],"categories_sizes":[],"default_left":[0,0,0],"id":66,"left_children":[1,-1,-1],"loss_changes":[5.0780818E-2,0E0,0E0],"parents":[2147483647,0,0],"right_children":[2,-1,-1],"split_conditions":[-6.1545086E-1,-3.3453498E-2,2.8685724E-2],"split_indices":[17,0,0],"split_type":[0,0,0],"sum_hessian":[2.7718785E0,1.1751465E0,1.5967321E0],"tree_param":{"num_deleted":"0","num_feature":"22","num_nodes":"3","size_leaf_vector":"1"}},{"base_weights":[-1.9667548E-4,-2.7595922E-2,3.318736E-2],"categories":[],"categories_nodes":[],"categories_segments":[],"categories_sizes":[],"default_left":[0,0,0],"id":67,"left_children":[1,-1,-1],"loss_changes":[4.844477E-2,0E0,0E0],"parents":[2147483647,0,0],"right_children":[2,-1,-1],"split_conditions":[-4.7849193E-1,-2.7595922E-2,3.318736E-2],"split_indices":[5,0,0],"split_type":[0,0,0],"sum_hessian":[2.7620807E0,1.6037235E0,1.1583573E0],"tree_param":{"num_deleted":"0","num_feature":"22","num_nodes":"3","size_leaf_vector":"1"}},{"base_weights":[1.3725668E-3,3.156411E-2,-2.8796421E-2],"categories":[],"categories_nodes":[],"categories_segments":[],"categories_sizes":[],"default_left":[0,0,0],"id":68,"left_children":[1,-1,-1],"loss_changes":[4.7994792E-2,0E0,0E0],"parents":[2147483647,0,0],"right_children":[2,-1,-1],"split_conditions":[-6.159467E-1,3.156411E-2,-2.8796421E-2],"split_indices":[12,0,0],"split_type":[0,0,0],"sum_hessian":[2.7483077E0,1.290863E0,1.4574447E0],"tree_param":{"num_deleted":"0","num_feature":"22","num_nodes":"3","size_leaf_vector":"1"}},{"base_weights":[1.714168E-3,-2.937594E-2,2.9637743E-2],"categories":[],"categories_nodes":[],"categories_segments":[],"categories_sizes":[],"default_left":[0,0,0],"id":69,"left_children":[1,-1,-1],"loss_changes":[4.585046E-2,0E0,0E0],"parents":[2147483647,0,0],"right_children":[2,-1,-1],"split_conditions":[-4.3287298E-1,-2.937594E-2,2.9637743E-2],"split_indices":[0,0,0],"split_type":[0,0,0],"sum_hessian":[2.7402408E0,1.3480422E0,1.3921987E0],"tree_param":{"num_deleted":"0","num_feature":"22","num_nodes":"3","size_leaf_vector":"1"}},{"base_weights":[1.2819269E-3,-2.8969029E-2,3.1747296E-2],"categories":[],"categories_nodes":[],"categories_segments":[],"categories_sizes":[],"default_left":[0,0,0],"id":70,"left_children":[1,-1,-1],"loss_changes":[4.835971E-2,0E0,0E0],"parents":[2147483647,0,0],"right_children":[2,-1,-1],"split_conditions":[-3.3780167E-1,-2.8969029E-2,3.1747296E-2],"split_indices":[16,0,0],"split_type":[0,0,0],"sum_hessian":[2.728712E0,1.4489269E0,1.2797852E0],"tree_param":{"num_deleted":"0","num_feature":"22","num_nodes":"3","size_leaf_vector":"1"}},{"base_weights":[1.6600556E-3,2.7444797E-2,-3.153112E-2],"categories":[],"categories_nodes":[],"categories_segments":[],"categories_sizes":[],"default_left":[0,0,0],"id":71,"left_children":[1,-1,-1],"loss_changes":[4.526325E-2,0E0,0E0],"parents":[2147483647,0,0],"right_children":[2,-1,-1],"split_conditions":[1.07291706E-1,2.7444797E-2,-3.153112E-2],"split_indices":[1,0,0],"split_type":[0,0,0],"sum_hessian":[2.7172909E0,1.5534616E0,1.1638292E0],"tree_param":{"num_deleted":"0","num_feature":"22","num_nodes":"3","size_leaf_vector":"1"}},{"base_weights":[6.461656E-5,-2.9975165E-2,3.170359E-2],"categories":[],"categories_nodes":[],"categories_segments":[],"categories_sizes":[],"default_left":[0,0,0],"id":72,"left_children":[1,-1,-1],"loss_changes":[4.9698174E-2,0E0,0E0],"parents":[2147483647,0,0],"right_children":[2,-1,-1],"split_conditions":[-4.6305543E-1,-2.9975165E-2,3.170359E-2],"split_indices":[20,0,0],"split_type":[0,0,0],"sum_hessian":[2.706532E0,1.4180467E0,1.2884852E0],"tree_param":{"num_deleted":"0","num_feature":"22","num_nodes":"3","size_leaf_vector":"1"}},{"base_weights":[5.243485E-4,-2.5425605E-2,3.0782446E-2],"categories":[],"categories_nodes":[],"categories_segments":[],"categories_sizes":[],"default_left":[0,0,0],"id":73,"left_children":[1,-1,-1],"loss_changes":[4.0844176E-2,0E0,0E0],"parents":[2147483647,0,0],"right_children":[2,-1,-1],"split_conditions":[-4.7849193E-1,-2.5425605E-2,3.0782446E-2],"split_indices":[5,0,0],"split_type":[0,0,0],"sum_hessian":[2.6928995E0,1.5597403E0,1.1331592E0],"tree_param":{"num_deleted":"0","num_feature":"22","num_nodes":"3","size_leaf_vector":"1"}},{"base_weights":[1.8392188E-3,2.7178599E-2,-3.186196E-2],"categories":[],"categories_nodes":[],"categories_segments":[],"categories_sizes":[],"default_left":[0,0,0],"id":74,"left_children":[1,-1,-1],"loss_changes":[4.4921663E-2,0E0,0E0],"parents":[2147483647,0,0],"right_children":[2,-1,-1],"split_conditions":[1.359581E-1,2.7178599E-2,-3.186196E-2],"split_indices":[1,0,0],"split_type":[0,0,0],"sum_hessian":[2.6810088E0,1.5605648E0,1.120444E0],"tree_param":{"num_deleted":"0","num_feature":"22","num_nodes":"3","size_leaf_vector":"1"}},{"base_weights":[1.5373022E-5,-3.0014934E-2,2.9461145E-2],"categories":[],"categories_nodes":[],"categories_segments":[],"categories_sizes":[],"default_left":[0,0,0],"id":75,"left_children":[1,-1,-1],"loss_changes":[4.588946E-2,0E0,0E0],"parents":[2147483647,0,0],"right_children":[2,-1,-1],"split_conditions":[-4.3287298E-1,-3.0014934E-2,2.9461145E-2],"split_indices":[0,0,0],"split_type":[0,0,0],"sum_hessian":[2.6705647E0,1.3132536E0,1.3573111E0],"tree_param":{"num_deleted":"0","num_feature":"22","num_nodes":"3","size_leaf_vector":"1"}},{"base_weights":[-1.3415163E-4,2.9475922E-2,-2.7334776E-2],"categories":[],"categories_nodes":[],"categories_segments":[],"categories_sizes":[],"default_left":[0,0,0],"id":76,"left_children":[1,-1,-1],"loss_changes":[4.1705616E-2,0E0,0E0],"parents":[2147483647,0,0],"right_children":[2,-1,-1],"split_conditions":[-6.159467E-1,2.9475922E-2,-2.7334776E-2],"split_indices":[12,0,0],"split_type":[0,0,0],"sum_hessian":[2.6589859E0,1.2391043E0,1.4198817E0],"tree_param":{"num_deleted":"0","num_feature":"22","num_nodes":"3","size_leaf_vector":"1"}},{"base_weights":[5.004358E-4,-2.7748339E-2,2.9992977E-2],"categories":[],"categories_nodes":[],"categories_segments":[],"categories_sizes":[],"default_left":[0,0,0],"id":77,"left_children":[1,-1,-1],"loss_changes":[4.303124E-2,0E0,0E0],"parents":[2147483647,0,0],"right_children":[2,-1,-1],"split_conditions":[-3.3780167E-1,-2.7748339E-2,2.9992977E-2],"split_indices":[16,0,0],"split_type":[0,0,0],"sum_hessian":[2.652015E0,1.4069333E0,1.2450817E0],"tree_param":{"num_deleted":"0","num_feature":"22","num_nodes":"3","size_leaf_vector":"1"}},{"base_weights":[9.777131E-4,-2.519544E-2,3.0703766E-2],"categories":[],"categories_nodes":[],"categories_segments":[],"categories_sizes":[],"default_left":[0,0,0],"id":78,"left_children":[1,-1,-1],"loss_changes":[3.9960086E-2,0E0,0E0],"parents":[2147483647,0,0],"right_children":[2,-1,-1],"split_conditions":[-4.7849193E-1,-2.519544E-2,3.0703766E-2],"split_indices":[5,0,0],"split_type":[0,0,0],"sum_hessian":[2.6417542E0,1.5304681E0,1.1112862E0],"tree_param":{"num_deleted":"0","num_feature":"22","num_nodes":"3","size_leaf_vector":"1"}},{"base_weights":[2.2192018E-3,-3.0079884E-2,2.656086E-2],"categories":[],"categories_nodes":[],"categories_segments":[],"categories_sizes":[],"default_left":[0,0,0],"id":79,"left_children":[1,-1,-1],"loss_changes":[4.099106E-2,0E0,0E0],"parents":[2147483647,0,0],"right_children":[2,-1,-1],"split_conditions":[-6.1545086E-1,-3.0079884E-2,2.656086E-2],"split_indices":[17,0,0],"split_type":[0,0,0],"sum_hessian":[2.630228E0,1.1286086E0,1.5016195E0],"tree_param":{"num_deleted":"0","num_feature":"22","num_nodes":"3","size_leaf_vector":"1"}},{"base_weights":[5.8770506E-4,2.6468908E-2,-3.2158118E-2],"categories":[],"categories_nodes":[],"categories_segments":[],"categories_sizes":[],"default_left":[0,0,0],"id":80,"left_children":[1,-1,-1],"loss_changes":[4.3673918E-2,0E0,0E0],"parents":[2147483647,0,0],"right_children":[2,-1,-1],"split_conditions":[1.289449E-1,2.6468908E-2,-3.2158118E-2],"split_indices":[17,0,0],"split_type":[0,0,0],"sum_hessian":[2.6222315E0,1.5462815E0,1.07595E0],"tree_param":{"num_deleted":"0","num_feature":"22","num_nodes":"3","size_leaf_vector":"1"}},{"base_weights":[-1.1654024E-3,2.6006954E-2,-3.0811125E-2],"categories":[],"categories_nodes":[],"categories_segments":[],"categories_sizes":[],"default_left":[0,0,0],"id":81,"left_children":[1,-1,-1],"loss_changes":[4.111229E-2,0E0,0E0],"parents":[2147483647,0,0],"right_children":[2,-1,-1],"split_conditions":[1.07291706E-1,2.6006954E-2,-3.0811125E-2],"split_indices":[1,0,0],"split_type":[0,0,0],"sum_hessian":[2.6105912E0,1.4779994E0,1.1325917E0],"tree_param":{"num_deleted":"0","num_feature":"22","num_nodes":"3","size_leaf_vector":"1"}},{"base_weights":[-2.152628E-3,-2.9709691E-2,2.8082708E-2],"categories":[],"categories_nodes":[],"categories_segments":[],"categories_sizes":[],"default_left":[0,0,0],"id":82,"left_children":[1,-1,-1],"loss_changes":[4.267827E-2,0E0,0E0],"parents":[2147483647,0,0],"right_children":[2,-1,-1],"split_conditions":[-4.3287298E-1,-2.9709691E-2,2.8082708E-2],"split_indices":[0,0,0],"split_type":[0,0,0],"sum_hessian":[2.6010203E0,1.2759846E0,1.3250358E0],"tree_param":{"num_deleted":"0","num_feature":"22","num_nodes":"3","size_leaf_vector":"1"}},{"base_weights":[-1.9614608E-3,-2.930895E-2,2.6826948E-2],"categories":[],"categories_nodes":[],"categories_segments":[],"categories_sizes":[],"default_left":[0,0,0],"id":83,"left_children":[1,-1,-1],"loss_changes":[4.014626E-2,0E0,0E0],"parents":[2147483647,0,0],"right_children":[2,-1,-1],"split_conditions":[-4.6140078E-1,-2.930895E-2,2.6826948E-2],"split_indices":[18,0,0],"split_type":[0,0,0],"sum_hessian":[2.590236E0,1.2312754E0,1.3589604E0],"tree_param":{"num_deleted":"0","num_feature":"22","num_nodes":"3","size_leaf_vector":"1"}},{"base_weights":[-2.0693922E-3,-2.992102E-2,2.464745E-2],"categories":[],"categories_nodes":[],"categories_segments":[],"categories_sizes":[],"default_left":[0,0,0],"id":84,"left_children":[1,-1,-1],"loss_changes":[3.763587E-2,0E0,0E0],"parents":[2147483647,0,0],"right_children":[2,-1,-1],"split_conditions":[-6.1545086E-1,-2.992102E-2,2.464745E-2],"split_indices":[17,0,0],"split_type":[0,0,0],"sum_hessian":[2.578979E0,1.1089478E0,1.4700314E0],"tree_param":{"num_deleted":"0","num_feature":"22","num_nodes":"3","size_leaf_vector":"1"}},{"base_weights":[-2.928503E-3,2.5134245E-2,-3.217317E-2],"categories":[],"categories_nodes":[],"categories_segments":[],"categories_sizes":[],"default_left":[0,0,0],"id":85,"left_children":[1,-1,-1],"loss_changes":[4.1291494E-2,0E0,0E0],"parents":[2147483647,0,0],"right_children":[2,-1,-1],"split_conditions":[1.289449E-1,2.5134245E-2,-3.217317E-2],"split_indices":[17,0,0],"split_type":[0,0,0],"sum_hessian":[2.5717082E0,1.5118638E0,1.0598443E0],"tree_param":{"num_deleted":"0","num_feature":"22","num_nodes":"3","size_leaf_vector":"1"}},{"base_weights":[-4.038666E-3,2.4061235E-2,-2.9894475E-2],"categories":[],"categories_nodes":[],"categories_segments":[],"categories_sizes":[],"default_left":[0,0,0],"id":86,"left_children":[1,-1,-1],"loss_changes":[3.6671583E-2,0E0,0E0],"parents":[2147483647,0,0],"right_children":[2,-1,-1],"split_conditions":[1.07291706E-1,2.4061235E-2,-2.9894475E-2],"split_indices":[1,0,0],"split_type":[0,0,0],"sum_hessian":[2.5607028E0,1.4469266E0,1.1137761E0],"tree_param":{"num_deleted":"0","num_feature":"22","num_nodes":"3","size_leaf_vector":"1"}},{"base_weights":[-4.4786655E-3,-2.9421767E-2,2.6836498E-2],"categories":[],"categories_nodes":[],"categories_segments":[],"categories_sizes":[],"default_left":[0,0,0],"id":87,"left_children":[1,-1,-1],"loss_changes":[4.000277E-2,0E0,0E0],"parents":[2147483647,0,0],"right_children":[2,-1,-1],"split_conditions":[-4.3287298E-1,-2.9421767E-2,2.6836498E-2],"split_indices":[0,0,0],"split_type":[0,0,0],"sum_hessian":[2.5522132E0,1.2563477E0,1.2958654E0],"tree_param":{"num_deleted":"0","num_feature":"22","num_nodes":"3","size_leaf_vector":"1"}},{"base_weights":[-3.873231E-3,-2.7811358E-2,2.780983E-2],"categories":[],"categories_nodes":[],"categories_segments":[],"categories_sizes":[],"default_left":[0,0,0],"id":88,"left_children":[1,-1,-1],"loss_changes":[3.8979612E-2,0E0,0E0],"parents":[2147483647,0,0],"right_children":[2,-1,-1],"split_conditions":[-3.3780167E-1,-2.7811358E-2,2.780983E-2],"split_indices":[16,0,0],"split_type":[0,0,0],"sum_hessian":[2.5420344E0,1.3449507E0,1.1970836E0],"tree_param":{"num_deleted":"0","num_feature":"22","num_nodes":"3","size_leaf_vector":"1"}},{"base_weights":[-2.7144884E-3,-2.9860338E-2,2.4456909E-2],"categories":[],"categories_nodes":[],"categories_segments":[],"categories_sizes":[],"default_left":[0,0,0],"id":89,"left_children":[1,-1,-1],"loss_changes":[3.6928177E-2,0E0,0E0],"parents":[2147483647,0,0],"right_children":[2,-1,-1],"split_conditions":[-6.1545086E-1,-2.9860338E-2,2.4456909E-2],"split_indices":[17,0,0],"split_type":[0,0,0],"sum_hessian":[2.5328927E0,1.0939488E0,1.4389439E0],"tree_param":{"num_deleted":"0","num_feature":"22","num_nodes":"3","size_leaf_vector":"1"}},{"base_weights":[-3.4375016E-3,2.3591934E-2,-3.0429905E-2],"categories":[],"categories_nodes":[],"categories_segments":[],"categories_sizes":[],"default_left":[0,0,0],"id":90,"left_children":[1,-1,-1],"loss_changes":[3.6334846E-2,0E0,0E0],"parents":[2147483647,0,0],"right_children":[2,-1,-1],"split_conditions":[1.289449E-1,2.3591934E-2,-3.0429905E-2],"split_indices":[17,0,0],"split_type":[0,0,0],"sum_hessian":[2.5257308E0,1.4819897E0,1.0437411E0],"tree_param":{"num_deleted":"0","num_feature":"22","num_nodes":"3","size_leaf_vector":"1"}},{"base_weights":[-4.3629473E-3,-2.8888717E-2,2.3059342E-2],"categories":[],"categories_nodes":[],"categories_segments":[],"categories_sizes":[],"default_left":[0,0,0],"id":91,"left_children":[1,-1,-1],"loss_changes":[3.365702E-2,0E0,0E0],"parents":[2147483647,0,0],"right_children":[2,-1,-1],"split_conditions":[-6.1545086E-1,-2.8888717E-2,2.3059342E-2],"split_indices":[17,0,0],"split_type":[0,0,0],"sum_hessian":[2.5159607E0,1.0931884E0,1.4227724E0],"tree_param":{"num_deleted":"0","num_feature":"22","num_nodes":"3","size_leaf_vector":"1"}},{"base_weights":[-4.7226343E-3,-2.7646141E-2,2.4995537E-2],"categories":[],"categories_nodes":[],"categories_segments":[],"categories_sizes":[],"default_left":[0,0,0],"id":92,"left_children":[1,-1,-1],"loss_changes":[3.4692276E-2,0E0,0E0],"parents":[2147483647,0,0],"right_children":[2,-1,-1],"split_conditions":[-4.3287298E-1,-2.7646141E-2,2.4995537E-2],"split_indices":[0,0,0],"split_type":[0,0,0],"sum_hessian":[2.5094566E0,1.2356516E0,1.273805E0],"tree_param":{"num_deleted":"0","num_feature":"22","num_nodes":"3","size_leaf_vector":"1"}},{"base_weights":[-4.0709544E-3,-2.9152473E-2,2.544182E-2],"categories":[],"categories_nodes":[],"categories_segments":[],"categories_sizes":[],"default_left":[0,0,0],"id":93,"left_children":[1,-1,-1],"loss_changes":[3.7207063E-2,0E0,0E0],"parents":[2147483647,0,0],"right_children":[2,-1,-1],"split_conditions":[-4.6140078E-1,-2.9152473E-2,2.544182E-2],"split_indices":[18,0,0],"split_type":[0,0,0],"sum_hessian":[2.5005121E0,1.1756184E0,1.3248937E0],"tree_param":{"num_deleted":"0","num_feature":"22","num_nodes":"3","size_leaf_vector":"1"}},{"base_weights":[-3.9230715E-3,2.3610588E-2,-2.922831E-2],"categories":[],"categories_nodes":[],"categories_segments":[],"categories_sizes":[],"default_left":[0,0,0],"id":94,"left_children":[1,-1,-1],"loss_changes":[3.4631263E-2,0E0,0E0],"parents":[2147483647,0,0],"right_children":[2,-1,-1],"split_conditions":[1.07291706E-1,2.3610588E-2,-2.922831E-2],"split_indices":[1,0,0],"split_type":[0,0,0],"sum_hessian":[2.490051E0,1.4059753E0,1.0840757E0],"tree_param":{"num_deleted":"0","num_feature":"22","num_nodes":"3","size_leaf_vector":"1"}},{"base_weights":[-4.36827E-3,-2.7385686E-2,2.643321E-2],"categories":[],"categories_nodes":[],"categories_segments":[],"categories_sizes":[],"default_left":[0,0,0],"id":95,"left_children":[1,-1,-1],"loss_changes":[3.6031976E-2,0E0,0E0],"parents":[2147483647,0,0],"right_children":[2,-1,-1],"split_conditions":[-4.6305543E-1,-2.7385686E-2,2.643321E-2],"split_indices":[20,0,0],"split_type":[0,0,0],"sum_hessian":[2.4820411E0,1.2861466E0,1.1958946E0],"tree_param":{"num_deleted":"0","num_feature":"22","num_nodes":"3","size_leaf_vector":"1"}},{"base_weights":[-3.3383986E-3,2.6533635E-2,-2.588491E-2],"categories":[],"categories_nodes":[],"categories_segments":[],"categories_sizes":[],"default_left":[0,0,0],"id":96,"left_children":[1,-1,-1],"loss_changes":[3.406132E-2,0E0,0E0],"parents":[2147483647,0,0],"right_children":[2,-1,-1],"split_conditions":[-6.159467E-1,2.6533635E-2,-2.588491E-2],"split_indices":[12,0,0],"split_type":[0,0,0],"sum_hessian":[2.4717004E0,1.1418486E0,1.3298519E0],"tree_param":{"num_deleted":"0","num_feature":"22","num_nodes":"3","size_leaf_vector":"1"}},{"base_weights":[-2.1489698E-3,-2.6387146E-2,2.7277501E-2],"categories":[],"categories_nodes":[],"categories_segments":[],"categories_sizes":[],"default_left":[0,0,0],"id":97,"left_children":[1,-1,-1],"loss_changes":[3.567803E-2,0E0,0E0],"parents":[2147483647,0,0],"right_children":[2,-1,-1],"split_conditions":[-3.3780167E-1,-2.6387146E-2,2.7277501E-2],"split_indices":[16,0,0],"split_type":[0,0,0],"sum_hessian":[2.465911E0,1.3116397E0,1.1542712E0],"tree_param":{"num_deleted":"0","num_feature":"22","num_nodes":"3","size_leaf_vector":"1"}},{"base_weights":[-1.2446534E-3,-2.6852045E-2,2.5817417E-2],"categories":[],"categories_nodes":[],"categories_segments":[],"categories_sizes":[],"default_left":[0,0,0],"id":98,"left_children":[1,-1,-1],"loss_changes":[3.4344118E-2,0E0,0E0],"parents":[2147483647,0,0],"right_children":[2,-1,-1],"split_conditions":[-4.3287298E-1,-2.6852045E-2,2.5817417E-2],"split_indices":[0,0,0],"split_type":[0,0,0],"sum_hessian":[2.4574327E0,1.209447E0,1.2479856E0],"tree_param":{"num_deleted":"0","num_feature":"22","num_nodes":"3","size_leaf_vector":"1"}},{"base_weights":[-1.1704703E-3,2.3285668E-2,-2.8139632E-2],"categories":[],"categories_nodes":[],"categories_segments":[],"categories_sizes":[],"default_left":[0,0,0],"id":99,"left_children":[1,-1,-1],"loss_changes":[3.2449186E-2,0E0,0E0],"parents":[2147483647,0,0],"right_children":[2,-1,-1],"split_conditions":[1.359581E-1,2.3285668E-2,-2.8139632E-2],"split_indices":[1,0,0],"split_type":[0,0,0],"sum_hessian":[2.4486434E0,1.4107245E0,1.0379189E0],"tree_param":{"num_deleted":"0","num_feature":"22","num_nodes":"3","size_leaf_vector":"1"}}]},"name":"gbtree"},"learner_model_param":{"base_score":"7.5384617E-1","boost_from_average":"1","num_class":"0","num_feature":"22","num_target":"1"},"objective":{"name":"binary:logistic","reg_loss_param":{"scale_pos_weight":"1"}}},"version":[3,0,5]}